nep4_zbl 4 Ti Al Nb C 
zbl 0.8 1.6
cutoff 6 6 110 110
n_max 8 8
basis_size 12 12
l_max 8 2 0
ANN 80 0
  5.1470029e-01
 -3.1675939e-02
 -1.4864171e-01
 -3.7903760e-02
 -8.3217733e-02
  2.0749423e-01
  4.8562728e-02
  1.9895002e-02
 -2.0382620e-02
  1.9730844e-01
 -4.8996512e-02
  3.9408142e-03
  7.3737442e-02
  2.3196174e-02
 -1.2032858e-01
  1.0389543e-02
 -5.2567786e-03
  3.3990834e-02
 -9.1544539e-02
  1.4817633e-01
 -9.3373070e-03
 -6.0327016e-02
  5.4444764e-02
  8.0259174e-02
  1.5683084e-03
  1.5177883e-01
  2.1316035e-02
 -4.6226267e-02
  6.6890620e-04
  2.5904953e-01
  7.4653910e-03
 -1.0853874e-01
  5.5880904e-02
 -9.5610827e-02
  3.7053432e-02
  3.5822649e-02
  1.7482676e-02
  1.7308217e-02
  1.0120049e+00
 -1.8976593e-02
 -5.8168162e-02
  7.2664469e-03
 -2.3661477e-02
  2.0285122e-02
 -4.7783688e-02
 -5.9873968e-02
 -4.3311510e-02
  4.0213866e-03
  3.2024034e-03
  6.1394698e-03
 -7.8372769e-02
  2.8494515e-02
  1.0721084e-01
 -3.8324001e-03
 -2.7761306e-03
  8.6203307e-02
 -4.2204622e-02
 -8.4342845e-02
 -4.7344286e-02
 -3.5085592e-03
  1.3518734e-02
  8.5998876e-03
 -2.2546718e-02
 -9.3729598e-03
  2.7181864e-02
  2.4563909e-02
 -9.3425503e-03
 -1.8568048e-02
 -7.5578712e-02
  1.1784890e-02
  4.5575383e-03
  1.7579661e-01
  2.3423759e-02
 -5.0954808e-02
  2.1450061e-01
 -5.6571305e-02
  6.4076230e-02
  2.4423234e-01
  2.8526107e-02
  9.6931076e-03
  3.5630620e-01
  3.9857887e-02
  8.5218661e-03
  1.6932992e-02
  2.9330812e-02
  4.3496396e-02
 -1.3194570e-01
 -4.7037810e-01
  1.8843259e-01
 -1.1087358e-02
 -3.6824141e-02
 -4.5343716e-02
  6.6957664e-01
 -6.6817686e-02
  2.8583002e-01
 -2.7966788e-01
 -5.9943353e-03
 -6.0919769e-02
  3.9734237e-02
 -7.7934608e-02
  7.2829314e-02
  1.0848568e-01
  1.0222793e-01
 -5.8671318e-02
  6.4762314e-03
  1.5353009e-01
 -1.0224596e-01
  4.3176510e-03
 -9.5897272e-02
  2.3933807e-02
  1.2746596e-01
  3.4830468e-03
 -4.6232689e-02
  6.5727867e-02
  4.8330348e-02
 -3.2553732e-02
 -4.8770826e-02
 -4.3020632e-02
  1.5863800e-01
 -4.3224946e-02
 -6.9263883e-02
  2.9142320e-01
 -2.8094116e-03
  2.4881642e-03
 -2.6599400e-02
 -3.9546769e-02
  1.2795785e-01
 -1.1279189e-01
  1.4981346e-01
  1.1918195e+00
 -6.0048096e-02
 -8.1303800e-03
 -9.8436385e-02
 -6.1717872e-03
 -2.4593979e-02
  1.2689238e-02
 -3.0598447e-02
 -1.7618146e-03
 -5.7540447e-02
 -5.1125139e-02
 -3.3682980e-02
  9.8913768e-03
 -7.3735736e-02
  1.3099959e-01
  1.2214365e-02
 -6.3178837e-02
  9.7905621e-02
  2.3535024e-03
 -8.8282200e-03
 -1.0402483e-01
  2.4039747e-01
  2.0560865e-01
 -1.6974181e-02
  1.1326068e-01
 -5.4357555e-02
 -3.0035557e-02
 -8.3947945e-03
 -1.4870523e-01
  4.1804248e-01
 -3.0877048e-02
  3.7067093e-02
  1.1909076e-02
  8.6200573e-03
  2.4181263e+00
  7.3116757e-03
 -4.5875061e-02
  1.1154776e-03
  2.7796388e-02
 -5.1537165e-03
 -4.3256253e-02
 -3.2666393e-02
  6.3979155e-01
 -4.1024614e-02
  2.0652493e-02
  2.6258221e-01
  6.3843369e-02
  2.9861091e-02
 -2.6799826e-02
 -2.0233821e-02
  3.3284587e-01
  7.5339353e-01
  1.4090404e-02
 -5.8821899e-01
 -5.7966971e-01
 -5.8756965e-01
  3.8420168e-01
 -6.6705912e-02
  1.0048314e-02
  1.2073129e-01
 -9.3165729e-03
  1.0890578e-01
 -1.3170269e-01
  3.5714861e-02
  1.0110611e-01
 -1.4023247e-01
  1.3103633e-01
 -8.6203933e-02
  7.3645271e-02
  1.6213873e-03
  5.1085997e-02
  1.1458326e-01
 -6.1415952e-02
 -2.4456494e-02
  4.8617665e-02
 -8.1776856e-03
  3.7332132e-02
 -8.2244776e-02
 -5.0290446e+00
 -1.7841710e-02
  1.2407033e-01
 -2.6016593e-01
 -6.1996378e-02
  6.1171222e-02
  1.8963335e-03
 -2.1344011e-01
 -1.6091986e-02
  1.0174996e-01
 -2.5755983e-02
  1.6329566e-01
  5.0793741e-02
 -5.4415196e-01
  4.8865627e-02
  2.4702674e-02
 -4.4215131e-03
  9.1500126e-02
 -2.1444683e-01
  5.2340508e-02
 -4.7247790e-02
 -1.0146090e-01
 -1.1060843e-01
 -2.9887373e-02
 -1.7178854e-01
 -4.3220134e-03
  1.1820836e-01
  2.3886124e-02
 -9.1182999e-02
 -1.1564815e-01
 -9.3585048e-03
  4.0024725e-01
 -3.1883740e-01
  8.3725512e-02
 -5.8268424e-02
  4.7668375e-02
 -9.8936148e-02
  1.1328361e-02
 -1.0017116e-01
 -5.1529217e-03
 -1.0292423e-01
 -1.6729259e-01
  1.7639208e-01
 -1.6285944e-01
  2.3632295e-02
 -3.3352897e-02
  8.3121389e-02
 -3.0287737e-02
  1.3060777e-02
  3.0580459e-02
  1.8929524e-03
 -1.6283548e-02
  7.9711653e-02
  2.3023650e-02
  2.2675050e-02
  2.0324865e-02
  2.2774388e-03
 -2.9503720e-02
 -2.6463578e-02
  3.4284990e-02
 -1.7592214e-03
 -3.4774851e-02
 -2.9660577e-01
 -4.6350902e-01
 -3.2273233e-02
  5.1959664e-01
 -1.6595009e-01
  1.8310298e-01
  2.5580401e-02
  1.1447122e-02
 -9.4109923e-03
  6.5877274e-02
 -2.9746763e-02
 -5.3621749e-03
  1.5730727e-01
  9.3616194e-01
  2.2122828e-02
  2.3198707e-02
  3.7450649e-02
 -1.0697185e-01
  7.8298353e-02
  1.0517076e-01
  5.5358987e-02
  1.0225423e-01
  8.3523214e-02
 -2.1018712e-02
 -9.9155260e-03
 -2.4104694e-02
 -1.3516322e-02
 -1.2395547e-01
 -2.6278190e-02
 -5.3446036e-02
 -3.0081861e-02
 -3.0115512e-01
  5.7664197e-02
 -4.1217132e-05
  6.9913872e-02
 -1.3463306e-01
  2.4150679e-02
 -2.1801479e-01
 -1.1620298e-01
 -4.0239755e-02
  3.3541162e-02
 -8.7782480e-02
  7.1722031e-02
  3.9824314e-02
  3.0829958e-03
 -2.7829340e-02
 -5.3673837e-02
  1.8398748e-01
 -3.1663835e-01
  7.5191773e-02
 -1.2656994e-01
 -2.2200976e-02
  1.0169002e-01
 -9.3082853e-02
  2.6885960e-02
 -2.1288253e-01
 -8.6446278e-02
  3.5163630e-02
  9.9624455e-02
 -4.4948518e-02
 -1.2617324e-02
  1.6225927e-01
  2.7404013e-01
 -6.5400433e-03
 -4.0532865e-02
  9.5892288e-02
 -3.1129368e-02
 -5.0107501e-02
  3.2462780e-03
  3.9906673e-02
 -4.2246908e-02
 -3.9404714e-03
 -9.1141284e-02
  7.8210577e-02
 -1.2164421e-01
  4.2361241e-02
  6.4554498e-02
  9.7177953e-02
  6.3882113e-02
  1.7463479e-02
 -1.0084189e-02
  4.6857637e-03
  2.5075227e-01
  9.2194736e-02
  6.3753313e-01
  3.3401668e-02
 -1.0461031e-02
  4.4666583e-04
  9.8773921e-03
 -1.1376041e-02
 -9.6653581e-02
 -7.1678913e-01
 -4.7830466e-02
  3.5391626e-01
  4.3775011e-02
  2.5837839e-01
 -6.1039563e-02
 -3.7377752e-02
  7.4460787e-01
 -4.9019005e-02
 -1.8473953e-03
  5.0824600e-01
 -8.5924799e-03
  9.0299975e-03
 -2.3837617e-02
 -9.3861828e-03
 -6.7746587e-02
  2.8911266e-02
 -4.2092878e-02
 -2.4422100e-02
 -1.4335870e-02
  1.4156210e-01
  2.2065310e-02
  2.1739480e-01
 -1.0094283e-02
  1.8698642e-02
  2.1537608e-02
 -4.6019919e-02
 -9.4966553e-02
  1.0110834e-03
  3.0423643e-02
 -4.2945758e-02
 -3.0908942e-02
  4.6183683e-02
 -6.4794600e-02
  1.4040984e-01
  8.0909185e-02
  1.5480993e-03
  3.4119040e-02
  4.0683977e-02
  1.6172299e-01
 -9.1275517e-03
 -3.1922409e-01
 -8.1581637e-02
 -2.1336873e-01
  1.4196835e-02
  5.4995608e-02
 -4.8852223e-03
  5.0976019e-02
 -4.9822696e-02
 -4.7124410e-03
  1.5409307e-01
  6.5655947e-02
  1.8081504e-01
  1.4616310e-02
  4.8293166e-02
 -1.0072867e-01
 -1.2529576e-01
  1.0597850e-01
 -2.8361136e-02
  1.3660636e-02
  1.2539269e-02
  1.1030154e-02
 -2.1310706e-02
  2.6051022e-02
 -2.2825085e-02
  1.7912589e-02
  2.2114379e-02
  1.0201593e-01
 -2.2593739e-02
 -1.1820002e-02
 -4.4439174e-02
  4.9669601e-02
  1.6165851e-01
  2.9268977e-01
 -8.2242303e-02
 -1.1929248e-01
 -1.3988718e-03
 -9.8286197e-03
 -6.4020753e-02
 -7.2845854e-02
  5.9057202e-02
  1.6357541e-02
  1.0820161e-01
 -3.8829338e-02
  2.0676984e-02
 -9.9096283e-02
  1.2637594e-02
  1.2556413e+00
 -1.8079194e-01
  9.7253155e-03
 -1.4437400e+00
  2.5662461e-02
  2.7359164e-01
  2.0417595e-01
  1.9007938e-01
 -8.7110186e-01
  2.3894289e-01
 -2.6402915e-01
 -1.0272890e-01
 -2.9802291e-02
 -1.3080840e+00
  1.9614894e-02
 -4.0577322e-02
  6.6353694e-02
 -6.1946291e-01
 -4.9360037e-02
  3.2141838e-02
  1.0127378e-02
 -7.3932266e-01
 -5.5599686e-02
  8.0237649e-02
 -2.3053927e-02
  1.4280814e-01
  7.0772909e-02
 -6.0051453e-01
 -9.4246171e-02
  5.2107226e-02
 -3.6846885e-01
 -1.6368313e+00
 -5.6308694e-02
 -5.4539513e-02
  4.9578477e-02
  2.0173980e-02
  1.8053868e-01
 -1.7561149e-02
  1.4085879e-02
 -1.8213972e-02
 -2.0236742e-02
  8.5239150e-02
  3.3152342e-02
  4.0684037e-02
 -2.1674877e-01
 -1.8466823e-02
  1.2449531e-02
 -4.3504599e-02
  2.8880658e-02
 -4.9740136e-02
 -1.2853815e-02
 -5.4758560e-02
  3.4729023e-02
  1.9897060e-02
 -2.5140824e-02
 -1.8746951e-01
  2.8458845e-02
  1.4304303e-01
  2.7241248e-01
  2.0804890e-01
  3.4940779e-02
 -1.4230273e-02
 -1.8764943e-01
 -8.3926983e-02
 -7.0953220e-01
  6.2612563e-01
 -6.3448139e-02
  1.8503167e-02
 -1.0234952e-02
 -1.3475032e-02
 -1.1333784e-01
 -4.3185949e-02
 -1.6380151e-01
  9.2251062e-02
 -1.0300978e-01
 -3.6147486e-02
 -3.0787976e-03
 -7.1374979e-04
 -7.7386424e-02
  2.1559291e-02
 -8.7610796e-02
 -5.9265662e-02
 -1.5291931e-01
 -1.0573455e-02
 -3.4423059e-01
 -8.9291155e-02
 -7.0503004e-02
 -1.0998067e-01
  2.3557821e-01
 -1.2397601e-01
  1.8136425e-02
 -1.7829444e-01
  7.9883058e-03
 -2.4301069e+00
  4.9020460e-01
 -1.0309808e+00
 -1.1800268e+00
 -1.2250907e-01
 -4.2434324e-02
 -4.9044317e-01
 -1.1430146e+00
  9.3926946e-03
  5.3788643e-02
  1.4808272e-01
  3.4526180e-02
  3.2908463e-01
 -8.6846892e-03
  6.3127562e-02
  1.5487208e-02
 -2.7084976e-01
 -9.7684211e-01
  6.6597527e-01
 -2.8448576e-01
  2.0816112e-02
  1.1595021e-02
  2.7943885e-01
 -5.4693598e-02
 -2.6838755e-02
 -4.8108965e-02
 -2.8195977e-02
  4.7397684e-02
  2.3555013e-03
  5.3221583e-02
  7.2873466e-02
 -3.8466265e-03
  9.1357030e-02
 -3.0781886e-02
 -3.1639430e-01
  3.6702450e-02
 -2.2570148e-02
 -1.9766591e-02
 -2.4348758e-02
 -5.5855954e-01
  9.3242415e-04
 -4.8435256e-03
  8.0720913e-03
 -9.9469081e-02
 -8.6067438e-02
  7.5669654e-02
 -1.8551132e-01
 -1.0394070e-03
 -9.9790581e-02
  1.4652111e-01
 -9.0727016e-02
 -4.9643430e-01
  1.5052652e-01
  2.0892251e-02
 -9.7728945e-02
 -1.3814069e-01
 -2.5434932e-01
  1.1334319e+00
 -2.7952912e-01
  4.5883924e-02
 -3.9901873e-01
  6.5571851e-01
 -1.2958281e-01
 -3.1210679e-01
 -4.2647696e-03
 -1.1625270e-01
  2.6303568e-01
  1.6778275e-01
 -8.3647944e-02
  6.1347429e-03
  2.7893868e-01
  1.7836770e-01
  1.3017553e-01
  6.7697316e-02
  1.5323416e+00
 -1.2773249e-01
 -2.7888766e-03
 -4.9445836e-04
  1.6379495e-01
 -1.4422520e-01
 -9.4355442e-02
 -1.0966852e-01
 -5.1563972e-01
  1.8715372e-02
 -1.7275129e-03
  1.7979206e-01
 -1.0552688e+00
  5.2675540e-03
 -2.8454494e-02
  1.7828111e-03
 -1.5222490e-01
 -9.2356252e-03
 -9.9721663e-03
  6.1940692e-02
  1.5272085e-01
 -4.2378122e-01
  3.8760379e-02
 -3.7409720e-01
 -2.8408647e-01
 -1.9718178e-02
 -1.1763726e-02
  2.8834125e-02
  7.3863603e-02
  3.2504339e-02
  8.7620072e-02
  4.1853383e-02
 -1.3004515e-01
 -3.4239173e-02
 -6.0311891e-02
  3.1015577e-02
 -1.1307185e-01
 -1.0261217e-01
  2.0497525e+00
 -5.2310910e-02
  4.6597194e-02
  7.9586571e-03
  6.7836288e-03
 -6.6173598e-02
 -8.1581585e-03
 -6.2569394e-03
  3.8334552e-02
  2.2088412e-02
 -6.2023215e-02
  2.2676159e-02
 -8.2349032e-02
 -2.1973064e-02
 -1.5387294e-02
 -1.4064998e-02
 -2.0457355e-02
 -2.9447824e-02
 -5.2671317e-02
 -9.0877511e-02
 -1.3797611e-02
  8.2377847e-03
 -1.0971460e-02
  4.5270391e-02
 -9.0662673e-02
  1.0329369e-01
 -1.0801396e-01
 -9.3503213e-01
  2.1374747e-01
  2.1594276e-01
 -4.9222079e-01
 -1.2905329e-03
  1.4727516e-01
  1.1397078e-02
  7.7117747e-03
  6.7052506e-02
  2.1993788e-02
  6.7242555e-02
  7.8918003e-03
 -1.8101521e-01
 -3.8843464e-02
  1.5818061e-02
 -6.4000562e-02
 -1.0129742e-02
 -1.2432865e-02
 -4.2390455e-03
  6.2061854e-02
 -5.3507467e-03
 -9.4988924e-03
 -3.0860271e-02
  1.2878504e-01
  8.0364324e-02
 -7.4976496e-03
  1.0777744e-03
  5.6038976e-02
  2.7823679e-03
 -1.9638457e-03
  1.8909611e-01
  1.5573315e-02
 -9.5666191e-03
 -1.1569960e-01
  2.7356129e-02
  1.0507120e-02
 -4.7850803e-02
  6.9575511e-02
 -3.5615583e-04
  1.5755056e-01
 -4.2243510e-02
  1.2190741e-01
  8.6565772e-03
 -5.9454829e-01
 -1.2263490e-01
 -2.3654940e-02
  2.2061799e-01
  1.8663813e-01
 -2.1349236e-02
  1.4243530e+00
 -7.8924604e-02
 -3.5565950e-02
 -1.6754655e-02
  1.8371522e-02
  3.7189588e-02
 -6.9384523e-02
  5.9368706e-01
 -3.4250192e-02
 -3.8068557e-01
  3.2380307e-03
 -4.2511009e-02
 -7.3160850e-03
  1.7712766e-01
 -1.3406235e-02
 -2.1672970e-02
  4.5082431e-02
  1.1940774e-01
  1.1179006e-02
 -8.6101919e-02
  2.6630203e-03
 -5.3177118e-02
  1.4220280e-02
 -4.7328672e-03
 -5.7967331e-02
  4.2666933e-03
 -5.1306132e-02
 -1.0233484e-01
 -6.2241126e-02
  1.5772872e-02
  2.2433799e-02
 -1.0067816e-02
 -1.2064432e-01
  3.7833285e-02
  8.1358455e-02
  1.0408693e-01
  5.6237709e-02
 -6.1153714e-03
  3.0993350e-02
  5.3606376e-02
 -1.1339115e+00
  1.7930353e-01
  2.2036428e-02
  7.4132249e-02
  1.8755427e-02
 -4.6741053e-02
 -1.2895946e-01
 -1.0259766e-03
 -1.9713191e-02
  1.5376835e-02
  2.7686635e-01
  7.4119590e-02
 -6.2939562e-02
  3.5355810e-02
 -2.8540058e-02
  3.3036374e-02
 -1.6533831e-02
 -4.0793288e-02
 -1.2401650e-02
 -5.3766165e-02
 -1.7871551e-02
  3.7887193e-02
 -2.7090667e-02
 -2.3676822e-02
  3.7941569e-01
  3.8205925e-02
  3.3465415e-02
  4.4420037e-02
 -7.7376775e-03
  3.9971951e-01
 -4.6408348e-02
  3.0231448e-02
 -1.6443944e-02
  1.0851449e-02
  1.8937616e-01
 -1.4515768e-03
 -1.5147677e-01
 -8.9375742e-02
 -2.1678053e-02
  2.0260690e-02
  3.9021450e-03
 -1.9470472e-02
 -3.7843725e-01
 -8.2766987e-02
  2.5662631e-01
  4.5784425e-02
  1.4215075e+00
 -5.9624646e-02
 -5.6668539e-02
 -8.6940922e-02
 -1.8217672e-01
  8.5393757e-02
  2.2519660e+00
 -3.3346347e-03
 -4.0449392e-02
 -1.5990231e-02
 -6.6859938e-02
 -3.8692497e-02
 -1.8749321e-02
  1.7876582e-02
  3.8955938e-02
 -1.5895126e-02
  1.0129508e-01
 -4.1255103e-03
 -3.2749113e-02
  3.5127234e-01
  3.6700312e-02
 -2.7110437e-02
  2.7337417e-02
 -1.9998932e-02
 -1.1809403e-01
  6.6084579e-02
 -2.5779696e-02
 -2.7272895e-02
  4.6111234e-02
 -1.8522989e-02
 -4.3616183e-02
 -1.9895019e-02
  1.3490780e-02
  7.8667939e-02
  1.0333368e-02
  4.1886136e-02
 -1.6055651e-01
  6.3554801e-02
  8.6357221e-03
  3.8029339e-02
 -5.9028668e-03
  2.0962467e-02
  3.0606549e-02
 -1.2362400e-01
  6.8905577e-03
 -4.9237259e-02
  1.0242980e-02
  2.6777612e-02
  3.1656951e-02
  8.7974481e-03
  1.1069720e-01
  4.9971949e-02
  1.4055428e-02
 -2.4376458e-03
  3.6586728e-02
  1.4270832e-01
 -3.3947457e-02
 -7.2970092e-02
 -1.2944677e-01
  9.8497365e-03
 -1.1753722e-03
  8.4398568e-02
 -6.1035044e-02
  4.2748533e-02
  5.2494437e-02
  1.8315136e+00
  1.3819283e+00
 -1.3831796e-01
 -1.7500477e-02
  3.8797520e-02
 -4.9936343e-02
  4.4195000e-02
 -5.6335513e-02
  5.4634199e-02
  1.2921162e-02
  1.2900963e-01
 -3.5794035e-02
 -8.1358384e-03
 -6.2457999e-05
  1.8381351e-01
  1.6831258e-02
 -3.8019095e-02
 -2.9662818e-02
 -5.3776935e-02
  6.1189379e-03
  6.4809173e-02
  1.7547941e-01
 -6.2269026e-01
 -3.7598217e-01
 -1.6352417e+00
  1.3932011e+00
 -3.2643777e-01
 -8.6720847e-02
  2.6579993e+00
  9.6807396e-01
  3.2314494e-01
 -1.7193273e-02
 -9.3717977e-02
 -1.1315060e+00
 -1.4654905e-01
 -3.6663789e-02
  8.6403131e-01
  1.5806505e-01
  9.3035780e-02
 -9.9891284e-03
 -1.1983999e-01
 -9.5241532e-02
  4.8532733e-01
 -3.9967117e-01
  7.3690690e-02
 -6.2109943e-02
  1.0251653e-01
  1.0237554e-01
  1.6823724e-01
 -2.1285291e-01
 -9.3673885e-02
  3.6115441e-01
 -2.3982497e-01
  2.5546590e-02
 -2.9279353e-02
 -1.4073728e-01
 -4.0016468e-03
 -1.8771461e-01
  5.1400799e-01
 -5.3146549e-02
  4.2938843e-01
  5.5744871e-02
 -7.4502837e-04
  2.7889775e-02
  1.1295713e-02
  6.7710489e-02
 -5.1521641e-01
 -2.2122767e-02
 -3.9755702e-01
  3.3441838e-02
  4.0260877e-02
 -5.8584176e-02
 -2.1126643e-01
 -2.6988181e-01
 -7.2089657e-02
  4.8151475e-01
 -5.8437109e-02
 -6.2480319e-01
  3.2439587e+00
 -4.7902077e-02
  1.1008297e+00
  9.3854481e-01
 -2.6117682e+00
 -7.4307751e-03
 -1.3703972e-02
  4.2488772e-04
  2.7371535e-01
  3.4176934e-01
 -1.0389940e-01
 -6.3830280e-01
  2.0890048e-02
 -1.7619942e+00
  5.9010489e-03
 -7.3442601e-02
 -6.6573992e-02
 -3.5063449e-01
  7.5955326e-03
 -7.3056422e-02
 -1.0084012e-01
 -2.0011732e-02
 -6.7160225e-01
 -4.3030643e-01
 -2.6954738e-02
  3.7324518e-02
  1.5375578e-01
 -3.5596818e-02
 -5.6840472e-02
  3.3762023e-02
  2.1882420e-02
  9.6203955e-03
 -1.6355621e-02
  1.0508481e+00
 -5.9453480e-02
 -7.3177539e-02
  3.6696574e-01
  1.2216612e-02
  9.4846040e-02
 -1.3024992e-02
  1.0963942e-01
  5.9032600e-02
  9.2134672e-01
 -5.8218982e-02
 -2.4301745e-02
  2.3862219e-03
 -9.9246591e-02
  3.8601840e-03
 -1.1483019e-01
  1.3524408e-02
 -5.2637178e-02
 -2.2279903e-01
  1.4372855e-02
 -4.8242472e-02
 -1.1502699e-02
 -1.0388950e-02
 -6.4112719e-05
  9.5566273e-02
 -2.4959035e-03
 -5.1053230e-02
 -1.7020537e-02
  5.2056643e-03
  3.8461588e-02
  1.7426366e-02
 -6.4278349e-05
  7.3520385e-02
  3.6743719e-02
  1.4514144e-01
  1.0454688e-02
  2.4464237e-02
  4.6177618e-02
  2.0126248e-02
 -3.6201873e-01
  7.2831479e-03
  1.7394785e-02
  5.7177987e-02
 -4.8288917e-03
 -2.2360643e-02
  2.1793615e-02
  4.8274245e-02
 -4.6801504e-02
  1.2734042e-01
  1.3801402e-02
 -1.3844688e-01
  2.9110465e-02
  1.2931330e-02
  1.1235364e-02
 -2.8442997e-02
 -1.0183899e-02
 -1.2673315e-01
 -1.6232692e+00
 -8.3779640e-02
  8.7567821e-02
 -1.5309548e-01
  1.8151394e-04
 -1.1907615e-02
  3.7904471e-04
 -1.5559160e-02
 -2.2330505e-01
 -1.2613551e-01
 -1.4145145e-02
 -2.7694109e-01
 -9.2722100e-01
  2.1282823e-03
  2.1937141e-02
  1.1460321e-02
  1.1271887e-01
  7.1582003e-03
  4.9975611e-02
 -8.1488222e-02
 -1.6278750e-01
  3.0590177e-02
 -5.7934433e-02
  6.2602818e-02
 -1.0760886e-01
 -5.0710224e-02
 -1.7468774e-01
  8.2527881e-04
  8.5396983e-02
 -1.0081904e-01
 -3.3332005e-02
  1.6631638e-01
  1.4318078e-02
 -5.2133894e-01
  8.8204235e-02
  5.4798946e-02
  5.2081205e-02
 -1.4272234e-02
 -2.1718672e-01
 -3.3873230e-02
  2.4550436e-02
  5.7247929e-02
 -8.6130071e-03
  1.7600593e-01
 -2.1899674e-02
 -8.8968873e-03
 -1.1997326e-01
 -6.3829282e-03
 -1.4688778e-01
  7.3262177e-02
  7.4172750e-02
 -6.3771762e-02
  3.6704805e-02
  3.9237909e-02
 -8.2978502e-02
  9.8229885e-02
  7.1336441e-02
  1.9097555e-02
 -3.8898531e-02
 -3.9700974e-02
 -6.6301133e-03
 -5.3504831e-03
 -4.0098138e-02
 -2.7059777e-02
  1.3785230e-02
  4.9505387e-02
 -1.7479995e-01
  4.3970525e-02
  4.1422188e-02
 -2.2728430e-02
  6.0228584e-03
  7.5511308e-04
 -4.6120208e-02
  5.0166685e-02
  6.2317131e-03
  6.3902475e-02
  3.2074526e-02
 -3.8574480e-02
  3.3430930e-02
  2.0940961e-02
 -4.2845707e-02
  9.7932965e-02
  5.0419338e-02
 -1.2148971e-02
 -3.4059337e-01
 -7.9914652e-02
 -6.3113160e-02
 -7.5139247e-02
 -1.4627340e-01
  8.1666481e-01
 -2.2291074e-02
  4.3970037e-02
  1.6419277e-02
  1.1104838e-02
  3.8348911e-03
  8.7094210e-02
  8.3023340e-02
  9.6776355e-03
 -2.4856687e-02
 -1.0872635e-01
 -2.1582164e-02
 -3.4995964e-03
  6.2706484e-03
  6.1968863e-02
 -4.0854439e-02
 -5.1276885e-02
  4.5330618e-02
  4.3070650e-01
  2.9342413e-02
  2.5922626e-02
 -8.1769546e-04
  1.7567487e-01
  4.6508517e-02
 -1.3374224e-02
 -7.8291632e-03
 -6.0017005e-02
  3.9385604e-03
 -2.7956465e-02
 -2.0741364e-01
  4.0194821e-03
  1.1918370e-01
  1.0445918e-01
 -1.2943482e-02
  1.5686095e+00
 -2.9392370e-03
 -3.3595133e-01
 -7.7156782e-01
 -3.9276949e-01
  7.2190815e-01
  8.0188036e-01
 -1.4335575e+00
  7.8386068e-01
  8.7634748e-01
  5.2307574e-03
  6.7996785e-02
 -2.1832566e-01
  6.3376874e-02
 -7.0664220e-02
 -9.0796739e-02
 -4.1037817e-03
 -1.3645113e-01
 -3.0625901e-01
  1.2831913e-02
 -8.2182795e-02
 -1.0486332e+00
 -1.9836426e-01
  2.2393134e-01
  1.8999766e-01
 -1.6507011e-02
 -2.1532783e-01
 -1.3187754e-01
 -7.3031351e-02
  2.2979006e-02
  7.5361840e-02
 -2.7115250e-01
 -2.5487445e-02
  4.0683668e-02
  1.6475948e-02
 -2.5620190e-02
  1.8060267e-02
  2.8039711e-02
 -5.6098726e-02
 -1.1528932e-01
 -2.1347933e-02
  1.8296090e-01
 -4.0020442e-01
 -7.4595101e-02
 -1.2981877e-04
  8.7711513e-03
 -1.6362979e-01
 -4.0099403e-04
  1.2457851e-01
 -1.8414517e-01
  1.0387771e-02
  8.4953727e-03
  8.8243537e-02
 -8.9252092e-02
  7.7383570e-02
  1.0227459e-01
 -1.1985242e-01
 -1.8089174e-01
 -1.6565224e-02
  1.2675969e-01
 -1.4479301e+00
 -4.9866223e-01
 -7.4063517e-02
  1.5987122e-02
 -1.1855347e-01
  8.9719944e-02
  5.1227077e-03
  8.9598201e-02
 -3.6206111e-01
 -1.5986526e-01
  1.9659454e-01
 -2.1768853e-02
 -6.3506342e-02
 -3.2029089e-01
 -6.5505430e-02
  3.1304736e-02
  4.3188815e-04
  4.5666326e-02
  7.0037745e-02
 -5.9595585e-01
  1.1861519e-02
  3.3508983e-02
 -3.6482185e-02
  8.2280137e-02
 -1.2214027e-01
 -8.2251206e-03
 -3.3456661e-02
  1.2772657e+00
  6.6459097e-02
 -6.8927631e-02
 -6.4269733e-01
  1.7889524e-02
 -9.8834939e-02
 -2.4684014e-02
  4.0069672e-01
 -3.8601393e-01
  5.4995634e-02
  2.9345566e-02
 -6.5703951e-02
 -4.7109276e-01
 -1.9580407e-02
  1.5719423e-02
 -9.9857086e-03
  1.0574417e-01
 -2.0582564e-02
  5.8713332e-02
 -2.1437146e-01
  6.3139088e-02
  4.5071736e-02
 -1.0202684e-02
  7.2966047e-02
 -1.1106171e-01
 -3.4170028e-02
  1.7039462e-03
 -1.0041936e-01
 -1.6767973e-02
 -3.0121949e-02
  1.4712668e-02
 -4.5221956e-03
  8.4297352e-02
 -1.4019210e-02
  7.9452507e-02
 -4.4981010e-02
  1.2805252e-01
 -5.9994902e-02
 -9.4935097e-02
  1.3265411e+00
  1.6167422e-01
 -3.7502255e-02
 -1.8078555e-01
 -5.0731334e-03
 -9.6351735e-02
  1.1570289e-02
  6.2178332e-02
 -1.6529385e-03
  1.5549368e-02
 -2.3546122e-01
 -5.2000407e-02
  3.4531027e-03
  8.2398407e-02
  4.7604740e-02
 -7.3470236e-03
 -6.7155379e-01
  1.1702341e-01
 -1.2866297e-01
 -6.7055203e-02
 -5.0036486e-02
  5.4999243e-02
 -4.9381144e-03
  3.4442186e-02
  7.9023592e-02
 -3.9276201e-02
  3.4486502e-02
 -7.6911308e-02
  2.3461862e-03
 -3.7142877e-02
  2.6417373e-02
  2.9739192e-02
  5.2214179e-02
 -3.1438380e-02
  7.5509794e-02
 -2.4891663e-02
 -1.5507951e-02
 -5.8459725e-02
  3.5849191e-02
 -1.2120665e-01
 -5.5613749e-02
  4.2428892e-02
  1.3356470e-01
  1.3482996e-02
 -3.3423349e-02
  6.9459695e-01
 -1.2597264e-01
 -2.1767402e-01
  4.1777022e-02
  1.2121874e-02
 -1.8690862e-02
 -1.2633431e-01
  4.0187337e-02
  4.5715138e-02
 -6.2435818e-01
 -2.9802799e-01
  6.5412349e-01
 -7.0670706e-01
 -4.5691019e-01
 -3.0121973e-01
 -3.2161733e-03
 -1.3236969e+00
 -1.1680111e-01
 -1.7391797e-02
 -2.5150115e-02
  3.6588457e-01
  4.1106272e-01
  1.6914244e-01
 -5.8580887e-01
 -1.6330086e-01
 -1.3233587e-01
  7.8805005e-03
 -2.5424066e-01
 -3.9849568e-02
 -1.0371074e-02
 -7.9118180e-01
 -9.0644360e-02
  9.0863973e-02
  3.0422833e-02
  5.5731451e-03
  1.9244747e-02
 -3.5504732e-01
 -3.1991076e-01
  2.2065425e-02
  8.7692529e-01
 -4.1497156e-02
 -1.5260022e-02
  1.2356704e-01
 -2.4755655e-03
  1.0774234e-01
 -3.1505176e-01
 -4.5319578e-01
 -3.4051829e-03
 -1.2237017e-01
  2.2359197e-01
 -7.1980476e-02
 -6.3699245e-01
 -4.9595643e-02
 -1.8130946e-01
  2.4209863e-02
 -7.7747046e-03
 -1.1686958e-01
  1.1409902e-01
  8.6781643e-02
 -9.9932246e-02
  1.7395967e-01
  3.3308651e-02
 -3.5025962e-02
  3.3522092e-02
  5.0814885e-01
 -4.8676693e-01
 -3.7012619e-01
  1.0608963e-01
  5.7704959e-02
 -1.5092193e+00
  6.9459146e-03
  2.1342084e-02
 -2.9493257e-02
 -4.2024683e-02
  2.9712645e-04
 -3.3761412e-01
  1.9952540e-01
  1.2029504e-02
 -1.0123998e-01
  1.0026801e-01
 -4.4562530e-02
 -2.0679900e-02
 -2.7972292e-02
 -8.8194482e-02
 -2.1290566e-01
  2.4582092e-01
  3.6405988e-02
 -1.1849996e-01
 -1.2043688e-01
 -8.8559464e-02
 -2.5591826e-02
  5.2442316e-02
 -4.6978444e-02
  1.3184733e-02
  4.8819700e-01
 -9.1664419e-03
 -6.5722272e-02
  4.5525540e-02
  4.0573282e-03
  1.8245411e+00
  6.7068957e-02
 -1.8558342e-02
  1.9387655e-01
 -2.0603912e-01
  2.9548231e-01
  1.9782752e-01
  6.8297358e-03
 -8.0787823e-02
  3.5994198e-02
 -1.1816115e-01
  4.8842885e-02
  3.9423313e-03
  1.7320685e-02
  1.0937268e-01
  1.6854320e-02
 -1.2556361e-02
 -4.7728043e-02
  1.1373214e-01
  1.5192059e-01
  1.4288147e-02
  6.9546044e-02
 -7.9962566e-02
  4.3468848e-02
  1.0169419e-02
  1.8018115e-01
 -5.4641843e-02
 -4.5267906e-02
 -2.6195770e-02
 -2.6905179e-02
 -8.2538083e-02
  6.2759571e-02
 -1.2605087e-01
 -1.2548640e-01
 -9.2832655e-02
 -5.4287467e-02
 -1.7380713e-02
  2.1702584e-02
  6.4507119e-02
 -2.0825189e-02
 -4.1626267e-02
  7.5346273e-03
  5.9626430e-02
  6.0722642e-02
 -2.8984914e-02
  1.3906364e-01
  3.7022941e-02
  5.8340129e-02
  7.1070850e-02
  3.4532662e-02
 -1.7442152e-02
 -2.1771130e-01
 -2.6431304e-01
 -3.7371952e-02
 -7.4397191e-02
 -1.0443864e-01
 -2.9623574e-01
  2.1153647e-01
 -7.6538318e-01
 -3.3379954e-03
 -1.1414943e-01
  1.7523053e-01
  1.9552087e-02
  3.0830072e-02
 -3.6010303e-02
  3.3102252e-02
  9.6718356e-02
 -2.8874241e-02
  3.8110625e-02
 -1.6328642e-01
 -1.5738133e-01
 -1.5002918e-01
 -1.0456580e-01
 -6.9872583e-03
  1.2922261e-02
 -7.5931014e-03
  2.8571540e-02
 -2.0246066e-02
 -6.7252256e-02
  7.4085489e-02
 -1.8360663e-02
  1.0246837e-01
 -5.8688655e-02
  2.5756843e-02
  5.9908390e-02
 -9.3468145e-02
  1.0879481e-01
  4.3143626e-02
 -2.9865067e-02
 -2.6389500e-02
 -6.3426003e-02
 -5.7162430e-02
  1.9477643e+00
 -1.0814093e-01
  1.0640061e-01
 -1.2468842e-01
  3.8148928e-02
  1.3126603e-02
  7.2120085e-02
 -3.3192500e-02
  1.0513972e-02
 -3.7013162e-02
 -1.3382540e-02
 -1.0970951e-01
 -9.5669657e-02
  2.0571772e-02
 -4.6807576e-02
  6.7843222e-03
  8.8782636e-03
  6.8544876e-03
  3.2982010e-02
  6.7064553e-02
  7.0106782e-02
  1.7724827e-02
  1.8261041e-02
 -1.6200494e-03
  9.1716656e-03
 -1.0493917e-01
  4.6788868e-03
  1.0392098e-01
  4.7999248e-02
 -1.5048959e-02
 -7.8530222e-02
  1.8757917e-03
 -1.1413464e-01
  2.3879321e+00
 -2.7208218e-02
  8.6705975e-02
  1.8591097e-01
  2.7997689e-02
 -6.8726607e-02
 -4.7007543e-01
  1.9055603e-02
  9.1394009e-03
 -2.0828331e-02
 -5.1234603e-02
 -7.4014110e-03
  3.2094121e-01
  5.9820835e-02
  2.3575194e-02
  1.3740350e-01
  3.1780902e-01
 -2.2391928e-03
  2.2097867e-02
  8.4940612e-02
  2.0495471e-02
  1.2789310e-02
 -4.7260087e-02
  8.3598611e-04
  8.0754995e-02
 -2.8733008e-02
  3.5459381e-02
 -5.0992653e-02
 -2.5291612e-02
  1.2026579e-03
  9.2602730e-02
 -4.4371918e-02
 -3.4631035e-01
  7.6331973e-02
 -2.1356917e-03
  5.6684390e-02
  6.7417309e-02
  9.7235339e-03
  9.0428470e-03
  1.6541099e-02
  2.5112109e-02
 -3.3638950e-02
  1.6950700e-01
 -1.2291091e-02
 -2.1053296e-02
  9.2394032e-02
  3.3367917e-02
  3.0405292e-02
  1.0677910e-01
 -3.4729708e-03
 -5.1540326e-02
 -2.6228534e-02
 -4.4546951e-02
 -5.0421804e-02
 -1.3479285e-01
 -3.3993271e-01
  4.0712532e-02
  1.5209424e-01
 -2.1570772e-02
 -2.3963353e-02
 -6.4051908e-01
 -6.5912291e-02
 -1.0917392e-01
  7.2412781e-02
 -3.9875498e-03
  1.1326685e-02
  7.2880886e-02
  2.3768848e-01
 -1.5964299e-02
 -1.5897553e-02
 -2.1095980e-02
  3.2138441e-02
 -7.3438339e-02
 -5.5762865e-02
 -4.9755339e-02
  3.2730260e-01
  2.3907499e-02
 -1.1335629e-01
  2.6630319e-03
 -4.2445742e-02
 -2.1092324e-02
  8.2468688e-02
  1.6672134e-02
 -2.0297006e-02
  9.2604980e-02
  3.9085791e-02
  3.8189504e-02
  4.2800523e-02
 -4.4320279e-01
 -4.6728473e-02
  5.7481267e-02
 -9.0160799e-01
 -1.1778387e-01
  5.8526341e-02
  2.1968947e-01
 -1.2029203e-01
  1.0024376e-01
 -3.1665990e-03
 -5.9370808e-02
 -1.3545847e-01
  5.3145792e-02
 -4.3304760e-02
  1.3406250e-01
  2.1666817e-02
  4.1396882e-02
 -5.9401704e-04
  1.1900610e-01
  8.4305197e-02
 -4.5417562e-02
  2.1502894e-01
  4.8171356e-02
 -1.9008478e-02
 -1.4892049e-01
 -5.9659947e-02
 -6.2967022e-03
 -7.3592275e-02
 -5.6278791e-02
 -1.3502896e+00
  6.2587373e-02
  1.0015386e-02
  7.4940100e-02
  2.1926190e-03
  5.6238037e-02
 -8.3215032e-03
 -1.7564906e-01
  2.4328053e-03
  1.9070944e-01
 -2.0486185e-02
 -7.8147061e-02
 -8.8518836e-02
  1.8421791e-02
 -3.8061377e-01
  6.2391255e-02
 -4.6344761e-02
 -8.0994166e-02
  7.3926523e-04
 -1.2548834e-01
  5.8987927e-02
  6.2434018e-02
  4.2660650e-02
 -5.6944624e-02
  1.0149698e-01
 -4.9532484e-03
 -3.0641148e-02
  1.5741476e-01
  1.1505680e+00
 -8.5955493e-02
 -4.3932743e-02
  3.8515691e-02
  3.6247829e-03
  2.9843271e-01
  1.2563635e-01
  3.5733115e-02
 -2.9108392e-03
  2.4514606e-03
  9.8739946e-03
  7.1803696e-02
  5.0767390e-03
 -1.5053837e-01
 -3.9701987e-02
  5.3295407e-02
  3.2116476e-02
  7.6465063e-02
 -3.2171141e-02
 -9.7363774e-04
 -1.0539901e-01
 -1.0089823e-01
 -2.5862141e-02
 -2.3129215e-02
 -8.8697039e-03
 -1.6688431e-02
 -1.5702937e-02
  3.9504234e-02
  8.0553010e-02
  8.1791636e-03
 -2.7627021e-01
  3.9254639e-02
  3.1783193e-01
  6.2403217e-02
 -6.0555570e-02
  1.1752185e-01
 -2.0665547e-01
  9.2844151e-02
 -3.4526959e-03
  2.4549754e-03
  2.1631867e-02
  2.8068665e-02
  1.8101050e-02
 -9.8770833e-01
  9.3092568e-02
  2.0123892e-03
  8.8021226e-02
 -4.3306157e-01
 -4.9524721e-02
 -5.1929954e-02
 -6.8140075e-02
  1.7753540e-02
 -9.6897654e-02
  5.9969034e-02
  3.7935048e-02
 -4.3206036e-01
 -1.2234131e-01
 -5.9418995e-02
  4.2470690e-02
 -1.0105689e+00
 -1.0639152e-01
  1.0162051e-04
  9.8998519e-03
  2.0419423e-01
 -2.1067025e-02
  7.2550908e-02
  3.0465242e-01
 -3.1617362e-04
 -3.7662193e-02
  6.4364947e-02
  1.6924988e-02
 -7.8933626e-02
 -2.5942938e-03
 -3.3979073e-02
  1.0552566e-01
 -1.0576199e-01
 -9.5625482e-03
 -1.8655961e-02
  5.8523798e-03
 -3.3199225e-02
 -1.4149656e-02
  3.5839197e-03
  1.2210228e-02
  1.5265395e-01
  7.0833467e-02
 -4.4098616e-02
 -1.1267855e+00
 -4.0595760e-03
 -7.1980014e-02
 -4.9773533e-02
  5.4483348e-01
  6.6268682e-03
 -9.8320830e-01
 -8.7801814e-02
 -4.5646453e-01
  2.5644088e-01
  2.9313499e-01
 -3.6603685e-02
  2.3731400e-01
  1.5322953e-01
 -1.3539366e-02
  4.2829912e-02
 -1.4702978e-03
  9.3460321e-02
  1.0807220e-02
  4.1190997e-02
  9.3034498e-02
  2.7873365e-02
 -3.3917785e-02
 -3.3712987e-02
 -2.5046282e+00
  4.4276949e-02
 -4.8398044e-02
  2.6789565e-02
 -1.0127572e-03
  3.8845029e-02
 -7.2812408e-02
  2.8081123e-02
 -8.3841003e-02
 -1.5616580e-02
 -4.1906375e-02
 -5.1928572e-02
 -4.0790409e-02
  6.7772865e-02
 -3.3308532e-02
 -3.1547582e-01
 -1.4287673e-02
  1.0077537e-01
 -1.9513117e-02
 -1.4401662e-01
  1.3383935e-01
  7.3501028e-02
 -2.3507532e-01
  6.0850456e-02
 -2.6356000e-03
 -1.7558007e-01
  5.7363659e-02
  3.7039328e-02
  2.0985577e-01
 -1.7571634e-01
 -2.6028684e-01
  6.1830956e-02
  8.5846752e-02
  4.3463714e-02
 -4.0098175e-02
  4.2854734e-02
 -1.9857188e-01
 -7.2460383e-01
  2.6308551e-02
 -1.0868063e-01
 -2.3745586e-01
  3.3596361e-01
 -2.2520528e-03
  4.1879721e-02
  4.9439874e-02
  8.9300275e-02
  4.8185028e-03
 -1.6866354e-02
 -1.1216404e-02
 -3.6636275e-01
  2.9119909e-02
  2.9731866e-02
  6.5582938e-02
  5.9779022e-02
  2.5052546e-02
 -6.8451226e-02
 -8.6715728e-02
 -5.6509197e-01
  8.6181045e-02
  1.2649548e-02
 -4.4323076e-02
  4.2289045e-02
 -5.9674284e-03
  9.3214922e-02
 -3.8862977e-02
  2.7330857e-02
 -3.1073574e-02
  1.9452732e-02
  5.7421815e-02
 -1.1187194e-01
  4.3939644e-01
  1.2630466e+00
 -1.8095713e+00
 -9.8527306e-01
  9.2515689e-01
 -1.6705594e+00
 -3.2940260e-01
 -6.5205604e-01
  4.2080954e-02
 -1.2115086e-01
  5.8897600e-02
  1.2037515e-01
  3.5262525e-01
 -9.0635620e-02
 -2.8290214e-02
 -4.3697163e-02
  6.3776739e-02
  5.2946843e-03
  1.2543038e-01
 -5.4796621e-02
  7.7167147e-01
 -5.8194524e-01
  1.6765391e-02
 -9.1929689e-02
 -2.6311155e-02
 -3.5816438e-02
 -1.3453791e-02
 -8.2859248e-02
 -9.6129572e-01
  7.5988099e-02
 -7.5506814e-02
  5.7497311e-01
 -6.6190474e-02
 -3.1838527e-01
 -1.1985409e+00
  4.1726143e-03
 -1.0723754e-01
  1.9182898e-01
  3.7029821e-02
 -5.2516619e-03
 -1.7879099e-01
  1.1152229e-01
  6.5825291e-02
  1.2170861e-01
  1.8360987e-02
  3.6030862e-01
 -1.0200853e-01
  1.8686730e-02
 -2.4496903e+00
  4.7494443e-03
 -2.8602554e-02
 -2.2986889e-01
  3.1445974e-01
 -2.7878199e-02
  4.5425183e-01
 -1.0261483e-01
  4.7181281e-01
 -2.4966724e-01
 -1.0974596e-01
 -2.3806071e-01
  7.7106136e-01
  1.4991925e+00
 -1.3044654e-01
  1.0762677e-01
 -5.7100426e-02
  2.6428696e-02
 -7.8798451e-02
  1.7434105e-02
 -1.1883263e-01
 -5.9902493e-02
  2.0980342e-01
 -8.5571453e-02
  5.5840099e-03
  1.3110961e-01
  2.0904737e-02
  5.5947866e-02
  2.4510106e-02
 -1.1088020e-01
 -2.7049165e-02
  2.7864601e-02
  6.1183415e-02
  4.9548209e-01
 -4.8082896e-02
 -1.5460594e-02
  4.2788621e-02
  1.3465079e-02
 -6.8494894e-02
  2.5362793e-02
  7.1042843e-02
 -4.2558166e-01
 -1.4511712e+00
 -1.7341334e-01
  2.7871300e-03
 -6.3365650e-01
  7.5468010e-01
  1.1466147e+00
 -7.2369084e-02
 -1.7594381e-01
 -5.6821054e-01
 -6.7577052e-01
 -2.8257944e-02
 -1.1384258e-02
  5.5818832e-03
 -7.5691029e-02
  2.3045626e-01
  2.3419401e-02
 -2.8804042e-03
 -2.3801386e-02
  2.4872303e-01
 -4.9561876e-01
  5.6428383e-03
  1.4214777e-02
 -2.3910722e-02
  1.2926596e-01
  5.0460640e-03
 -9.3323819e-02
 -2.7693224e-01
 -6.1314464e-01
 -1.2414954e-03
 -1.0075080e-01
  2.5375655e-02
 -8.8666994e-03
  1.3219509e-02
 -1.1997333e-02
  2.0753046e-02
  1.0531588e-02
  1.3916617e-02
 -4.1649841e-02
 -4.1110694e-01
 -7.4270487e-02
 -5.1651306e-02
  4.4428766e-02
  1.8336482e-02
 -3.5880249e-02
 -1.3488583e-01
 -6.4966476e-01
 -8.8411076e-03
  7.9096740e-01
  2.1639600e-02
  1.2093804e-02
 -1.3308471e-01
  6.2480533e-01
 -7.8147316e-01
  1.3245000e-01
  9.0517163e-01
  3.6423773e-02
  4.4291320e-01
 -2.2349064e-03
 -6.5996116e-03
  5.9443574e-02
 -8.6288017e-01
  2.4607030e-01
  8.9278922e-04
 -1.0865161e-02
 -1.1091808e-01
 -2.1173334e-01
  1.4964125e-01
 -1.9897154e-02
 -7.4212454e-02
 -1.0112097e-02
  9.4025934e-01
 -2.0461148e-01
  6.2597804e-02
  4.5454498e-02
 -1.5903778e-02
 -4.5037519e-02
 -3.8811412e-02
  4.5744475e-02
 -1.3971309e-01
  1.0818899e-01
 -4.8173305e-02
  3.9148457e-02
 -9.8493114e-02
 -4.2616604e-03
  3.8925789e-02
  1.0775775e-01
 -5.0177544e-02
  4.7681764e-02
 -1.3166820e-02
  7.5526661e-03
 -2.1749563e+00
  5.2360245e-03
  3.5364616e-01
 -1.6546353e+00
  3.9823514e-01
 -2.2790775e+00
  3.7008509e-02
 -9.2049651e-03
  2.6619720e-01
 -4.8169983e-03
  1.1104956e-02
 -1.0433694e-01
 -2.4110867e-02
 -2.8664967e-02
  6.3139878e-02
 -3.3118613e-02
 -2.4476205e-01
 -1.7740136e-02
  1.4298449e-01
 -4.8800211e-02
  2.2400466e-01
  7.4205317e-02
  6.1696447e-03
 -8.6333407e-03
  1.0830927e-05
 -2.5746268e-01
 -1.9071879e-02
 -2.1594000e-01
  1.4466707e-01
 -1.0350619e-01
 -1.0962515e-01
 -5.6859624e-02
 -4.6101129e-01
  6.8817604e-01
  2.2636311e+00
  6.5928791e-03
  7.7282198e-02
 -9.7365521e-02
  5.3829093e-02
 -5.9029683e-03
  1.1481982e-01
  1.7926464e-02
 -1.2382254e-01
  2.0791000e-02
 -9.9512069e-03
  1.4720269e-02
  3.8494989e-02
  4.8176106e-02
  7.1312237e-01
  5.7047341e-02
  5.8121532e-02
  7.4989282e-02
  4.6326876e-02
  8.3169609e-02
 -3.7028578e-03
  1.4706700e-01
 -6.4814848e-01
  1.0620041e-01
  2.7918622e-02
  1.3844167e-01
  2.0818539e+00
  6.0253698e-01
 -1.9141851e-02
  4.6373750e-03
 -8.1044413e-02
  1.3458417e-01
 -6.2967330e-02
  1.0614000e-02
 -2.5498322e-01
 -2.5142339e-01
  2.4289848e-01
 -1.6043790e-01
 -1.1861157e-01
 -9.0250701e-02
  8.1981950e-02
 -2.1710699e-02
 -2.3273127e-02
  4.8835408e-02
 -1.5965831e-01
 -5.9201859e-02
 -8.1657814e-03
  2.9645365e-02
 -1.5040164e-02
 -1.0375739e-01
  8.7024108e-02
  4.1678023e-02
  1.6334723e-01
  9.8313719e-02
 -9.2891179e-02
  3.5323162e-02
 -1.3327721e+00
 -2.1951806e-02
 -9.9704778e-01
  8.3023421e-02
  1.2474614e-01
 -1.7434217e-01
  1.2486055e-01
 -1.9848065e-01
 -1.2844329e-01
  1.0790488e-01
  3.3940330e-02
  1.0447152e-02
  1.4339295e-01
 -5.0534331e-03
 -1.3302790e-03
  1.4289474e-02
  1.0714567e-01
  2.1903126e-02
  1.3879567e-01
  3.1159233e-02
 -3.6917772e-02
 -3.0383714e-02
 -6.9883332e-02
  4.0348447e-03
 -9.2027202e-02
 -6.5432489e-03
 -5.7588052e-02
 -4.8222546e-02
 -1.8096166e-02
  1.3491544e-01
 -1.2551866e+00
  7.1746632e-02
 -6.5808155e-02
 -2.3089999e-02
  3.9392550e-02
 -1.1954731e-01
  9.9817090e-02
 -9.6791185e-02
 -2.6259968e-02
  6.1657455e-02
 -8.8352254e-03
 -5.9204429e-02
 -6.3127046e-03
 -3.7330666e-03
 -8.2632333e-02
 -1.0271113e-01
 -3.2635413e-02
 -1.3858062e-01
  1.0822480e-01
  6.5477393e-03
  4.0961154e-02
 -3.7720386e-02
  2.2941872e-02
  5.9531003e-02
  3.6942583e-02
 -2.0561026e-02
  2.1422124e-03
  6.7200530e-03
  9.8472744e-02
  6.5919213e-02
  6.2230717e-02
 -1.7952899e-02
  4.0929656e-02
 -8.0181556e-03
 -1.9031990e-02
  1.2599302e-02
 -6.1168507e-02
 -1.1818215e-02
 -1.8075434e-02
 -1.4840978e-01
  2.4899323e-01
  3.1828552e-02
 -6.2549070e-02
 -1.0345473e-02
 -7.7824056e-02
  1.0025536e-02
 -6.2225102e-03
  2.0882139e-02
  7.4154578e-02
  6.2075974e-03
  1.2497174e-02
 -9.5446102e-02
 -6.4027674e-02
  6.7081768e-03
 -2.2857252e-03
  1.8072357e-02
  1.0222321e-01
 -7.4857660e-02
 -1.0890669e+00
  9.6641324e-02
 -7.1473175e-01
 -8.2436614e-02
  6.9707358e-01
 -2.1309341e-01
 -3.7151400e-02
 -4.7463682e-02
 -4.2115670e-02
 -7.1498938e-02
 -1.2986284e-01
  8.5915513e-02
 -1.1459133e-01
  6.8244725e-02
  3.3073100e-01
 -1.4930679e-01
  1.9085417e-02
  4.8779806e-01
  4.1961864e-02
 -5.2723147e-02
  1.7583096e-02
  6.5601893e-02
  1.5605761e-01
  3.7852127e-02
  4.9881734e-02
 -4.1055292e-02
  1.5590661e-02
 -4.3282147e-02
 -5.2090704e-02
  4.3744821e-02
  4.7179446e-02
 -3.4405764e-02
 -1.3485354e-02
 -4.9258184e-02
  3.7793980e-03
  1.8727245e-02
 -8.0794794e-03
  2.8035754e-01
  8.0994010e-02
 -1.4772625e-01
 -1.1740095e-01
  4.3096100e-03
  6.9514439e-02
 -4.2486531e-03
  2.1627330e-04
  9.2430497e-03
 -7.5613447e-02
  1.0806749e-01
  4.3429279e-01
  6.6188234e-01
  6.6227786e-02
  4.8743007e-03
  2.7842049e-02
  1.5277329e-01
  4.3475556e-01
  5.6886584e-02
 -1.8343574e-03
  2.9787168e-01
 -9.5380582e-03
  3.5453838e-01
  6.2856823e-02
 -5.1380056e-03
 -2.9036537e-02
 -5.5438146e-02
 -1.0165498e-01
 -3.7762243e-02
 -1.1749140e-03
 -3.2069199e-02
  3.5060123e-02
 -4.8128320e-03
  4.7533507e-03
 -3.8669258e-02
 -1.0575858e-02
  4.1256696e-02
  1.3190134e-01
 -1.0938711e-02
  6.3167382e-03
 -5.8371510e-02
  6.6057360e-03
 -2.6873974e-02
  4.9267624e-02
  1.2669313e-01
  1.0173397e-02
 -7.8342250e-03
  1.1042800e-01
 -6.8631120e-02
  9.4976246e-02
 -3.5190312e-03
  4.1837101e-03
  2.1443382e-02
  8.8253163e-02
 -3.3127121e-03
 -5.8789343e-01
  6.0198063e-01
 -3.2465696e-01
 -3.2354298e-01
  1.3123042e-02
 -6.4314109e-01
 -6.6430502e-02
  7.1860544e-02
 -2.5750140e-02
  3.7282102e-02
  3.0548770e-03
  5.2245110e-02
  2.2412738e-02
  1.9471351e-02
 -1.8136160e-01
  2.0917606e-02
 -1.3892359e-01
  1.3327104e-01
  2.7621069e-03
 -5.7277836e-02
  2.8965142e-02
 -2.1201603e-02
  1.1869988e-02
 -6.5544985e-02
 -2.4992933e-02
 -9.6865095e-02
  1.2686200e-01
 -1.7775160e-03
  2.1654196e-01
 -1.7214239e-02
  2.5693797e-02
 -2.3510508e-02
  3.5502642e-02
 -6.6068149e-01
  3.6324907e-02
  1.8076193e-02
  3.3724960e-02
 -9.1260120e-02
  2.3635086e-02
  6.8450347e-02
 -2.2898591e-03
 -1.5581524e-01
 -2.7450452e-02
  5.5900916e-02
 -1.2431188e-02
  4.8319589e-02
  3.2002188e-02
 -3.7398986e-03
  1.0063977e-01
  5.8291857e-03
 -1.3155540e-02
  3.5901982e-02
 -5.1974882e-03
 -8.9516509e-03
 -1.8161055e-02
  5.8293473e-03
  5.7397634e-01
  3.1343743e-02
 -3.7629206e-02
  5.4007966e-02
  6.1183132e-02
  3.8449338e-01
 -7.8759799e-03
  1.7238151e-02
  3.1674515e-02
  3.7491944e-02
  7.0132077e-02
 -1.8447045e-02
  8.1670195e-02
 -4.5031335e-02
  1.7064016e-01
 -8.6547601e-01
  7.7408358e-02
  1.7857100e-01
  7.4165702e-02
  1.0622677e-02
  4.0272647e-01
  1.2450977e-01
 -1.3732797e-01
  1.3079478e-03
  1.4618065e-03
 -1.9652957e-02
  6.0035950e-03
 -2.5130348e-02
  1.1140198e-01
  5.5377133e-02
  1.5685245e-02
 -1.4616661e-01
  3.9322171e-02
  8.6424299e-02
 -4.3555287e-01
  4.7271084e-02
  4.3379813e-01
  9.0138793e-01
  6.8611987e-02
 -7.0442423e-02
 -5.5543031e-03
 -9.3407139e-02
 -1.1940920e+00
 -4.3490510e-02
  1.2452281e-01
 -4.0768892e-02
  3.0584240e-02
  2.5792416e-02
  3.4190336e-01
 -8.8005826e-02
 -1.9416975e-02
 -4.4685612e-03
  2.0106335e-01
  1.5016356e-01
 -1.0518101e-02
  9.5165841e-02
  1.5974749e-02
 -6.9138922e-02
 -1.0514874e-02
 -5.2061020e-03
  1.9768162e-02
  3.6590956e-02
 -2.1882877e-03
 -2.2077608e-01
  7.4638233e-02
 -4.0726867e-02
  1.2933603e-01
  1.3433324e-02
 -2.9350419e-02
  6.8333879e-02
  2.0708865e-02
  5.6682147e-02
 -2.2918990e-02
  6.3869460e-03
  3.0400342e-04
 -1.2338844e-02
  1.0561995e-01
  2.0209197e-03
 -1.8981516e-02
 -1.1308514e-02
  5.2858885e-02
  2.5819795e-02
  8.3178326e-02
 -1.5959773e-02
  3.2871388e-02
  3.4479883e-02
 -3.7669420e-02
  4.2911123e-02
 -4.3357722e-03
  4.6294685e-02
  1.8148595e-01
 -5.6289132e-03
  1.2658881e-01
 -1.7029295e-03
  2.1974772e-02
  1.4064284e-01
 -3.4672399e-03
  4.6462446e-02
 -2.2321211e-02
 -1.6862164e-01
  1.1068808e-02
 -4.2284597e-02
  7.1590982e-02
  1.1490652e-01
 -4.6776292e-01
  6.3516416e-02
  1.2500847e-02
 -3.1806797e-02
 -4.0758602e-02
  6.2600942e-03
  7.0315143e-03
  1.7469940e-01
  1.2170974e-01
  1.6348124e-03
  4.8177111e-01
  6.8002604e-02
 -4.6218809e-02
 -5.0100251e-03
  9.7258426e-03
  3.0840784e-01
 -6.1712204e-03
  2.0654967e-05
 -1.4526050e-01
  1.3117777e-02
 -2.1446037e+00
  3.9453827e-02
  9.6108449e-01
  2.8660396e-01
 -1.8819010e-01
 -3.3591315e-02
 -1.8117389e-01
  2.0581084e-01
 -1.7141238e-01
 -1.7779817e-01
 -5.0567362e-02
  7.1499035e-02
  1.8750298e-01
 -1.5484746e-01
 -1.6025200e-01
 -2.1897543e-02
  1.5918834e-02
 -4.5786981e-02
  1.7351814e-01
  1.9172892e-02
 -3.1652644e-02
 -3.9569125e-02
  8.3562553e-02
 -1.7612390e-01
 -1.3194562e-01
  1.2009841e-02
 -4.2708058e-02
 -9.2848927e-02
  1.4667709e-02
  1.6298058e-02
  4.7681488e-02
  1.7573595e-02
  7.3944546e-02
 -5.8845144e-02
 -1.0501884e-01
 -9.0072564e-05
  1.1484975e-02
  2.0431009e-01
  3.4977090e-02
  4.6944026e-02
 -7.2263749e-05
 -5.8052354e-02
  1.6477298e-02
 -1.2904402e-02
  7.5457431e-02
  2.9624403e-02
  4.5510404e-02
 -6.0160505e-03
 -2.8117812e-01
  9.3553551e-02
  1.5602078e-01
  2.1838911e-01
 -6.7351297e-02
  1.3899866e-01
 -8.0347069e-02
  6.8925604e-02
 -3.3575606e-01
  1.2455351e-01
 -3.4708241e-01
  1.4086192e-02
  1.7029178e-01
  6.1237544e-01
 -3.1949427e-02
  1.6033223e-02
 -1.9299026e-01
 -1.0160331e-02
  7.2747149e-02
  6.5721817e-02
  9.0967089e-02
 -2.3506243e-02
 -3.0575546e-02
 -1.8378263e-02
 -8.9839049e-02
  1.8937835e-01
  3.6535457e-02
  5.0046083e-02
  1.3167482e-02
  4.3779109e-03
  3.7282497e-02
  2.7591318e-01
 -6.2836796e-02
 -1.8910087e-03
 -3.9516356e-02
 -7.7469371e-02
  1.3178099e-02
  2.2865301e-02
  7.0428611e-03
  2.6092786e-02
  1.5260425e-01
 -3.2255236e-02
 -1.1104932e-01
 -8.5032165e-01
  2.4729176e+00
 -3.6748009e+00
  1.4124674e+00
  8.7902987e-01
 -8.5912162e-01
 -3.9563901e-03
 -1.3972592e+00
 -6.0399753e-01
  3.6508769e-02
 -6.3727698e-03
  4.6804163e-01
 -2.1262912e-01
 -7.2799246e-03
  7.1094401e-02
 -1.1810331e+00
 -1.1438872e-02
  1.2814119e+00
 -6.7429674e-01
  1.2215573e-01
  1.5697473e-01
  3.7236971e-01
 -9.4125444e-01
 -1.4654894e-01
 -2.7659693e-01
  1.5112475e-01
 -4.0276790e-01
 -7.9293273e-02
  1.2241547e+00
 -2.8123774e-02
  7.2042507e-01
 -4.9721401e-02
  2.4902210e-02
  2.3340583e-03
  4.5623511e-02
  1.8570579e-04
 -5.1418018e-02
  4.8980813e-02
  2.0995300e+00
 -3.6894415e-02
 -1.2122462e-01
 -3.1645190e-02
 -2.5496525e-01
 -1.6822219e-02
  1.8198220e-01
 -7.1712470e-01
 -9.1045254e-01
  7.5545466e-01
 -5.5725449e-01
 -3.2176483e-01
 -5.9770525e-01
  2.4109817e-01
  2.6733336e-01
  3.6545032e-01
 -2.3976211e-02
  2.7930507e-01
 -1.0528575e+00
 -8.1590582e-03
 -7.3805654e-01
 -1.0670741e+00
  1.2856413e-01
 -1.3275826e-01
  1.2501569e-01
 -2.0709330e-02
 -4.6294946e-02
 -7.1386510e-01
  5.2418839e-02
 -1.7038147e+00
 -3.6839452e-01
  5.1420933e-01
 -1.5127766e-01
  2.5867151e-02
 -6.3991524e-02
 -1.2202870e-02
  1.7164037e-02
  2.9987453e-02
  1.6681249e-01
 -1.7103741e-01
  1.6936202e+00
 -3.4806196e-02
  4.3892119e-02
  4.9715862e-02
  1.3518493e-02
  1.2832651e-01
  2.8427190e-01
  4.4132885e-02
 -2.3667042e-01
 -8.3625810e-03
  5.5463441e-02
  2.3770106e+00
 -2.5181049e-02
 -4.7195647e-02
 -1.1288843e-01
  3.7802817e-04
 -1.8924827e-02
  7.1802904e-04
  3.8210884e-02
  8.4578991e-02
 -6.8329345e-03
  5.8969270e-02
  2.7152969e-02
  3.1998192e-03
  1.3837953e+00
  1.4003683e-02
 -5.0776031e-02
 -7.5317780e-03
 -2.2183398e-02
  5.5979090e-03
  5.3639255e-02
  4.5994893e-03
  1.0764038e-03
  2.5702074e-02
  7.4372399e-01
 -8.1116870e-02
 -1.6434936e-02
  9.8807095e-03
  5.3522099e-02
  1.6611627e-01
 -5.6098320e-02
  2.9806688e-02
  3.7927877e-02
 -8.1752781e-03
  1.2054842e-01
 -2.0205402e-01
 -9.6808679e-02
 -1.9904919e-01
 -1.2584754e+00
  5.9141439e-01
 -1.4296342e-01
 -1.6345743e-02
  9.6067131e-02
  6.3441053e-04
 -3.9927670e-01
  3.0069386e-03
  1.4228082e-01
 -2.5486998e-02
 -4.0783368e-02
  1.2539862e-01
 -1.3109013e-01
  3.5729550e-02
  1.0792110e-02
 -1.3315416e-02
  6.6244109e-03
 -2.0900685e-01
 -3.1547360e-02
 -1.5846616e-02
 -9.6376342e-01
  1.0747217e-01
 -9.4939008e-02
  9.0621840e-03
  5.4310922e-02
 -3.6951348e-02
  3.2964822e-02
  1.7514339e-02
  2.3286397e-02
 -3.4475229e-03
 -1.5135416e-02
 -7.2486468e-02
 -2.3574648e-02
  1.7342350e-01
  9.4022512e-02
 -4.0975696e-01
  5.8448713e-02
  4.3637358e-02
  7.5887330e-02
 -1.3095155e+00
 -4.2086724e-02
 -1.1426246e-02
 -6.9677316e-02
  1.4115472e-01
 -1.4338985e-03
 -7.8187846e-02
 -1.1101062e-03
 -1.2242085e-02
  3.2601371e-02
  5.6004204e-02
  4.4563055e-02
  1.4981248e-02
 -3.5746325e-02
 -6.1974603e-01
 -3.1911436e-01
 -2.0328824e-01
  1.3659717e-01
 -2.8954637e+00
  1.1234040e+00
  1.3164603e+00
  1.1515643e-01
 -9.2523366e-02
  1.3001388e-01
 -1.6063106e-01
 -4.5512795e-01
 -1.7702779e+00
  7.6891668e-02
  2.5516102e-01
  3.8218319e-01
  2.9725954e-01
 -1.5938586e-02
  1.0922845e-02
  2.3069455e-01
 -3.1505796e-01
  2.1461485e-01
  2.2859225e-01
 -2.8540757e-01
 -4.2450225e-01
  5.6804550e-01
 -1.8369837e-02
 -6.0038716e-02
 -1.3762923e-01
  4.9875781e-01
  4.7638994e-01
 -5.0674933e-01
  4.4533613e-01
  4.0789336e-01
 -1.2386230e-02
 -1.3644066e-01
  2.9378416e-02
  5.2252252e-02
  1.8318620e-01
  3.6337107e-01
 -3.8517341e-01
  7.5169426e-01
  2.4260324e-01
  6.0102981e-01
 -4.0027350e-02
  1.2887903e+00
  1.4786732e-01
  2.0936912e-01
 -5.5194116e-01
 -2.9997152e-01
 -3.5572752e-02
  1.1964303e-02
 -9.4235033e-02
 -9.7074702e-02
  1.6697999e+00
  4.7303759e-02
  1.9943092e+00
  1.4255174e-01
 -2.1396792e-01
  9.1830468e-01
  1.4522220e+00
  3.6330023e-01
 -4.3568742e-03
  2.8472599e-01
  3.2864687e-01
 -3.2393625e-01
 -1.1709896e-01
 -4.7088733e-01
  8.0232096e-01
  4.2607006e-01
 -5.3269273e-01
  3.1639683e-01
  5.0673500e-02
  1.3049468e-01
  1.9087760e-02
 -2.3592779e-01
 -3.4448647e-01
  8.6864001e-01
  1.2821403e-01
 -1.5547904e+00
  4.9524684e-02
 -1.8629877e-02
 -2.3150722e-02
  8.4373750e-02
 -4.1474822e-01
  2.8402085e+00
  2.3512609e-02
 -7.4696504e-02
 -1.6241587e-03
  2.3499969e-01
  3.7439385e-01
  2.4203727e-01
 -1.2857728e+00
 -1.5837998e-03
 -1.7774591e+00
 -1.1374532e-01
  1.1234162e+00
 -2.7322202e+00
  2.0035505e+00
 -1.5001535e-01
 -7.7686572e-01
 -3.5756438e-03
 -8.2873392e-01
  8.2791317e-03
  1.3142124e+00
 -7.4834175e-02
 -1.0039634e-03
 -3.6853492e-02
 -7.0285589e-01
 -8.2793158e-01
 -7.2110943e-02
 -7.1862139e-02
 -4.2416218e-01
  3.0119869e-01
  3.4378153e-01
 -6.2963033e-01
 -1.5784723e-01
  3.2423284e-02
 -4.6985004e-02
  1.3950488e-01
  1.7422856e-01
 -6.7347193e-01
  4.0279627e-01
  4.1562948e-02
 -2.0066900e+00
 -5.2311169e-03
  3.5435766e-01
 -7.2398978e-01
  5.9276032e-01
 -4.2966545e-01
 -1.0084714e-01
  4.7045022e-01
 -1.2705785e+00
 -3.4791952e-01
 -7.5010486e-02
  6.3380969e-01
 -2.9342944e-02
 -3.5062778e-01
 -4.8430207e-01
  3.6272264e-01
  1.5061726e-01
  1.5687098e-01
  8.7010965e-02
  3.6598574e-02
  1.4060072e+00
  4.1708957e-02
 -1.4922382e+00
  1.1352949e+00
 -2.7440077e-01
  7.7907011e-02
 -7.2464921e-02
 -1.1365997e+00
 -7.9586729e-02
  3.9380807e-03
 -3.3219895e-01
  2.3896379e-02
  6.5591258e-01
  3.6142547e-02
  1.0331948e-02
  4.6436381e-02
 -8.5022062e-02
 -9.8283306e-02
 -6.8893572e-03
  2.6078420e-02
 -6.6704226e-01
 -1.1482862e-01
 -1.2543410e-02
 -3.5151619e-02
 -2.4844337e-02
 -3.8201714e-01
 -1.4703652e-02
 -4.3873463e-02
 -2.3088004e-03
 -4.4370286e-02
  2.2884693e-02
  6.0282569e-02
  4.5698632e-02
  6.2236860e-02
 -1.7162691e-01
 -8.4372371e-02
 -2.0237170e-01
  2.1190520e-03
  2.8999113e-02
 -2.0377506e-02
  7.0776895e-02
 -4.5896810e-01
 -3.0192694e-02
 -1.4846669e-01
 -2.5248545e-01
 -5.8822013e-02
  7.8774437e-02
 -5.3805634e-02
 -3.8746525e-02
 -7.7602737e-02
  1.5839405e-01
 -7.1749017e-02
 -2.6531711e-02
 -6.8312570e-02
 -5.0798167e-02
  7.8676790e-02
  2.8625358e-02
 -3.2441082e-04
 -4.5664057e-02
  6.0876105e-02
  1.2014095e-01
  1.7042026e-02
  3.2221995e-02
 -6.2118978e-03
 -1.3125345e+00
  3.6416959e-03
  1.5376978e-02
 -5.6111597e-02
  2.2609919e-01
 -1.4159462e-01
 -2.4981846e-04
  1.7291177e-02
 -6.1540905e-02
  1.2034930e-03
  2.4705051e-02
 -7.0527298e-03
 -1.6004711e-03
 -9.4091989e-02
 -9.2622921e-02
 -7.1089393e-03
  1.6816832e-02
  4.2297062e-02
  1.4239473e-03
 -6.0951032e-02
  1.4493412e-01
  1.2214608e-02
  2.0485025e-02
 -1.0860083e-01
  2.1605057e-01
  3.5191858e-03
  7.2435790e-04
  1.3319716e-01
  1.0588212e-01
 -5.5243468e-01
  4.0748738e-02
 -4.3090597e-02
  4.3472786e-02
  2.4731699e-02
 -4.2493800e-03
 -7.8888088e-01
  2.6250739e-02
  8.4041744e-02
 -7.9587149e-03
  4.4971976e-02
  8.2377702e-02
 -1.1119828e-01
  2.4591628e-02
  1.5204382e-02
 -8.0210634e-02
  7.1418069e-02
  2.3793934e-02
 -2.1988511e-02
 -1.5588760e-02
  1.3584766e-03
 -5.7703685e-02
 -2.9420268e-02
  5.0512884e-02
  2.5278401e-02
  8.8673256e-02
 -1.5025726e-01
  3.4578044e-02
  7.5173443e-03
  6.9358975e-02
 -1.1539483e-01
 -3.4239658e-03
 -8.9015057e-03
  2.3296833e-02
 -3.3549979e-02
 -1.0707407e-01
 -3.4540176e-02
 -1.6324306e-01
  2.8758365e-01
  2.4589308e-02
  2.5741699e-01
 -5.9712108e-02
 -1.1724266e-01
 -8.5041726e-01
  1.7101072e-02
 -2.1436103e-02
  3.6366619e-02
 -2.5384184e-02
 -2.9058769e-02
 -3.0337099e-02
  2.0606732e-02
 -2.0825514e-01
  5.7118528e-02
  8.0854386e-02
 -1.1855433e-02
 -4.7197916e-02
 -8.3930250e-03
  4.1553207e-02
 -6.7411462e-04
 -3.2607016e-01
  1.2002006e-02
 -1.0625307e-01
 -1.0567482e-02
 -2.1397434e-02
  4.5383472e-02
  2.0084232e-02
 -7.5980738e-02
  4.1643274e-03
 -1.3377456e-02
  8.0342294e-04
  2.9296039e-02
 -2.4396029e-05
  3.7599728e-01
  1.3519894e-02
 -2.6869224e-02
  1.2418821e+00
 -1.5626994e-01
  5.2405711e-02
 -7.8045814e-03
 -4.4639397e-02
 -7.1799374e-01
  1.3836569e-01
 -9.5633812e-02
  3.2426291e-03
 -1.0797993e-02
 -9.9869072e-02
  1.3707002e-01
 -1.5817072e-02
  4.8691136e-01
  7.4852906e-02
  8.6830938e-03
 -1.1577570e-01
 -3.8277864e-01
  1.8493345e-02
 -8.7242097e-02
 -6.5711774e-02
  8.7886108e-03
  3.7213415e-02
 -2.6672896e-02
 -4.0424231e-01
  6.0078815e-02
  1.7395385e-02
  3.9959483e-02
 -5.1297951e-03
 -2.3561655e-02
  5.0973635e-02
  2.9525995e-02
  7.7482842e-02
  1.3066590e-01
 -4.9775723e-01
 -4.6920419e-02
 -2.7525502e-01
  2.3039140e-02
  1.4656980e-02
 -2.2252314e-02
  2.5758050e-02
  1.3941268e-02
  1.1951244e-01
 -1.1674069e-01
 -6.7161269e-02
 -3.1940997e-02
 -3.2421581e-02
  2.3242123e-02
 -2.2554119e+00
  1.6393806e+00
  1.5932137e+00
  1.3997793e+00
  3.0638802e-01
  1.5969074e+00
 -1.5011305e+00
  1.0078881e+00
 -8.1022501e-01
 -1.2817211e+00
  4.6985179e-01
  2.8067410e-02
  1.6656355e+00
 -2.5827241e-01
 -1.7814360e+00
  3.7176371e-02
 -8.2996124e-01
  9.0572439e-02
  8.4597850e-01
  1.1898830e-01
  3.0957219e-01
  2.8708251e-02
  5.1759028e-01
 -3.2241914e-01
 -1.3504982e+00
 -1.6089378e-01
  2.2587577e-01
  1.0203866e+00
  4.6588436e-01
 -1.2764294e-02
 -5.2712690e-02
 -4.6208896e-02
  5.9536204e-02
 -1.7138459e-03
 -3.4458672e-03
  6.1222762e-02
 -2.3714423e-01
  1.7695978e-01
 -1.1550168e+00
 -9.7328949e-01
  6.9624223e-02
  2.2723155e-01
  6.1354432e-02
 -1.5928523e-01
  8.0569230e-02
  4.4356543e-01
  6.1180139e-01
  1.5140778e-01
  4.8017159e-02
  7.3282176e-01
  1.2843300e+00
  5.3357857e-01
  1.3738081e-01
  3.8223413e-01
  1.7350340e-01
 -3.6547448e-02
  2.8580734e-01
 -4.6167454e-01
 -1.4844435e-01
 -2.1418227e-01
 -1.3123253e-01
  4.1525450e-01
 -9.1548733e-02
 -5.1984534e-02
  1.8468353e-01
 -5.7716288e-02
  2.1193603e-01
 -3.7041202e-02
  2.5167513e-01
 -4.9761467e-02
  2.0159060e-01
  3.0656569e-02
  7.9126768e-02
  1.7452936e-01
  1.8227592e-01
  1.4791128e-01
  5.9891671e-01
 -3.9701201e-02
 -1.1542764e-02
  2.4650155e-01
  2.8995755e-03
  2.2464819e-01
 -1.3171272e-01
 -7.3208399e-02
  1.7707840e-01
  2.1771513e-02
 -1.5985791e-01
 -7.0223667e-02
  6.5125379e-04
 -5.9307828e-03
  1.9983891e+00
  5.8063948e-01
  2.1910720e+00
 -3.8455042e-01
 -6.5860641e-01
 -9.1289073e-01
  1.8839645e+00
 -1.0678170e+00
 -5.4031688e-01
 -1.2403909e-01
  5.5863425e-02
 -5.1654756e-01
 -1.7418970e-01
 -3.9274380e-01
  9.6059874e-02
 -2.7417772e-02
 -2.6683831e-01
 -1.2220849e+00
  1.1000809e-01
 -3.7586141e-02
  1.1825231e-01
  1.6554013e-01
  3.9577428e-01
 -2.2878833e-01
 -1.5165371e-01
 -2.3085469e-02
 -7.1424194e-02
  1.6417097e-01
  2.6554005e-02
 -3.9157901e-02
 -1.2230287e-02
  6.3719267e-01
 -6.6744204e-04
  1.3452718e-01
 -1.4827392e-01
 -6.8618581e-02
 -2.1541309e-01
 -7.8660036e-03
 -3.2548058e-01
 -7.3556608e-01
  1.1639289e+00
 -1.8923502e-02
  7.8108579e-02
  8.9753486e-02
  3.6384393e-02
  5.2946862e-02
 -3.7463091e-02
  4.9039949e-02
  7.6712254e-03
  5.6289036e-02
  1.8188089e-02
  9.8569846e-01
  6.7303616e-01
  2.2325670e-02
 -6.4136553e-01
 -2.8331768e-02
  1.7522696e-01
 -8.0787838e-01
 -6.3802317e-02
 -3.3872187e-02
  7.8753984e-01
 -1.8251935e+00
  5.1935539e-02
  6.5602630e-02
 -1.0503691e-02
 -2.2479195e-02
  2.3805924e-02
  2.6968371e-02
  1.7931777e-01
  2.2442396e-01
  1.4819639e+00
 -8.9903213e-02
  3.9335355e-02
 -3.0809421e-02
  1.8509053e-01
  1.1990227e-01
  1.5278492e-02
 -6.5066405e-02
 -1.0821635e-01
  1.4938156e-01
  5.5069163e-02
 -2.2048183e-02
 -7.2820098e-03
 -2.7981076e-02
  2.9439658e-02
  3.2663081e-02
 -4.5827273e-02
 -3.8818661e-02
 -4.8282877e-02
 -3.4903917e-02
 -5.7165647e-01
 -9.8272013e-03
  2.2019784e-01
  3.3201326e-02
  1.5214206e-01
 -1.7011209e-01
  1.1048165e-02
 -2.3745168e-02
 -3.9988346e-02
  7.7106401e-02
  6.8128154e-02
 -1.0796944e-01
  3.2918487e-02
 -1.9654911e-02
 -4.7975872e-02
  1.0472649e-01
  1.8595930e-02
  6.2464792e-03
  1.1087076e-02
 -1.0877091e-02
 -1.1293504e-01
  5.8642104e-03
 -2.5588237e-02
 -3.3807348e-02
  2.0857710e-02
  4.5277961e-02
  1.4295989e-02
 -5.4031905e-02
 -4.3847155e-02
 -5.1320054e-02
  5.8074351e-03
  3.1729698e-02
  2.6867632e-02
 -3.2756431e-03
 -2.0175728e-03
 -2.1808838e-02
  5.1734678e-02
  6.3057058e-02
  2.1435429e-01
  4.0019311e-02
  2.6076350e-02
 -2.3707179e-02
  1.5942484e-01
 -2.8025343e-03
  6.6169105e-02
 -1.0082470e-01
 -1.5588061e-02
 -6.4201415e-02
  5.0989268e-03
  5.4971524e-02
  7.6676264e-02
  2.2551927e-01
 -3.0687211e-02
 -4.5400307e-02
  4.7433112e-02
  1.0603307e-02
  8.7709304e-05
 -1.6005501e-02
 -5.2568298e-02
 -1.9526301e-02
  3.7850928e-01
  4.2897660e-02
 -9.6026301e-02
 -4.3026872e-02
 -4.5328651e-02
  2.5377890e-02
  1.4151216e-02
  1.6966413e-04
 -2.6996665e-02
 -1.3185816e-02
  4.4950899e-02
  2.7532178e-01
  1.0717170e+00
  4.1618061e-01
  3.0648904e-03
  2.2580574e-01
 -4.5313151e-03
  1.1942907e-02
  6.5148331e-02
  7.8566879e-02
 -1.5274738e-02
  5.7958357e-02
 -6.2378589e-02
  1.0860500e-02
 -9.9997914e-01
  5.6262337e-02
 -1.2640323e-01
 -2.6983963e-03
 -9.1934845e-02
 -1.9404527e-02
 -1.1822286e-01
  1.4456240e+00
  1.2042395e+00
 -1.5861162e+00
  4.3874839e-01
 -6.8543094e-01
  3.9142221e-01
 -4.1187379e-01
 -3.3880270e-01
 -4.8767683e-01
 -2.1930884e-01
 -3.9962348e-01
  1.3227550e+00
 -6.6959608e-01
  4.0722862e-01
 -5.8047885e-01
 -1.5003421e+00
 -3.9628699e-02
 -1.4068114e-02
 -1.2666359e+00
  5.6683105e-01
  5.2057809e-01
 -1.0843334e+00
  5.4505020e-01
  1.4982127e-01
 -8.1942296e-01
 -5.0168067e-01
 -1.0277511e+00
  8.2221940e-02
  1.4965573e-01
  7.8825337e-01
 -3.1304184e-01
 -1.8316483e-01
 -4.9301437e-01
  3.1800814e-02
 -2.2402106e-02
 -2.1317482e+00
 -3.5585096e-01
 -9.2815334e-01
  1.7703909e+00
  2.9242867e-01
 -8.8234335e-01
 -4.7498897e-01
  6.1170100e-03
 -5.0540286e-01
 -9.8968642e-03
 -6.2358695e-01
  8.2081628e-01
 -4.3521744e-01
  1.6314472e-01
  2.2269680e-01
 -3.7799212e-01
  1.4569001e-01
 -2.4554834e+00
  5.3025994e-02
 -1.4527501e-01
  1.3139132e-01
 -7.3099422e-01
 -1.9973072e-01
  9.3551673e-02
  5.7482269e-02
  9.6173787e-01
 -2.7129796e-01
  5.7031983e-01
 -8.4010214e-02
  4.2979009e-02
 -5.8577693e-01
 -1.6477893e-01
 -2.9616967e-01
 -5.3259277e-01
  4.9937215e-01
 -8.6100837e-03
  1.2607437e+00
  2.6064003e-01
 -3.4217041e-02
  4.6880552e-01
  7.3384613e-02
 -6.8359874e-02
 -5.3030980e-01
  6.0680616e-01
 -1.6410656e-01
 -3.3477542e-01
 -3.0321734e-02
 -4.4294812e-02
  3.0313343e-01
  7.3628663e-03
  7.8302594e-03
 -3.5956569e-02
 -2.1759562e-01
 -6.0683791e-02
  4.0778854e-01
  6.2805957e-01
 -2.5536782e-01
 -1.9089359e+00
 -2.8667298e-01
 -6.4413548e-01
 -9.1766968e-02
 -1.1196856e+00
  4.7946480e-01
 -4.8669413e-02
  1.0967714e-02
 -3.2607947e-02
  4.0070996e-01
  1.8722026e-02
  6.1865985e-02
  2.2811774e-02
  4.9696513e-02
  3.7529906e-03
  1.5184474e-01
 -3.2733567e-02
 -2.6994601e-02
  2.3856591e-03
 -3.9263520e-02
 -3.7041157e-02
  1.7933558e-01
 -1.4782092e-01
  5.7675805e-02
  3.4654303e-03
  3.2045767e-02
  5.6060161e-03
  4.3381876e-01
 -8.0955878e-02
  2.2499137e-01
  5.0263847e-03
 -1.2927276e-01
 -1.8076753e-02
  1.5141185e-02
  1.8057212e-02
 -6.3384332e-02
 -5.6391314e-02
  2.9712024e-01
 -2.5447095e-02
  1.3438526e-01
 -2.1505542e-01
 -2.2082361e-03
  1.0626065e-01
 -4.8691973e-02
 -1.0621840e+00
 -2.4883547e+00
 -3.2995415e-01
  5.7501893e-02
  1.4882267e-01
 -3.9124793e-01
  1.9469458e-01
  1.9996431e-02
  2.1120098e-03
  4.0943456e-01
  1.8055740e-01
 -8.8500660e-03
 -2.4293013e-01
  1.3600333e-02
 -6.7352019e-02
 -1.0452669e-01
  1.3447016e-01
 -2.1589211e-01
 -5.4471944e-02
 -1.0697093e-01
  6.0385842e-02
 -8.6280003e-02
 -1.7026065e-02
  5.7360165e-02
  1.2258982e-02
 -5.7981811e-02
 -1.4368716e-01
 -9.7835332e-02
  1.1121064e-02
 -4.1742558e-03
 -2.4009256e-01
 -5.1312495e-02
  9.4057471e-01
 -1.2461580e-01
  2.5581104e-01
 -1.3676084e-02
 -2.0673987e-02
 -6.7291986e-03
 -1.0193323e-01
 -3.5589155e-02
 -5.2385215e-02
 -1.0903340e-01
  4.2354107e-02
 -3.7486658e-02
  7.6814793e-02
  1.3022974e-02
  5.2795682e-02
  1.3033586e-02
 -1.3268813e-01
 -3.7722707e-02
 -2.9201534e-01
 -7.9444371e-02
  8.0875136e-02
 -1.1451434e-01
 -1.9175045e-02
 -4.6921566e-02
 -6.8493858e-02
 -2.7418777e-01
  1.5785147e-01
  3.3956110e-02
 -6.7256908e-03
  6.8622507e-02
  6.8383902e-02
  1.3258615e-01
 -6.4075008e-02
  1.0402630e-01
  4.7507785e-02
  1.8664671e-01
 -1.3479955e-02
 -6.7725964e-02
  2.0672069e-01
 -6.1699461e-02
  4.5218993e-02
 -7.7308521e-02
  5.9024490e-02
  1.5296784e-01
 -4.6075140e-03
 -1.1841294e-01
 -5.8157686e-02
 -1.1914129e-03
 -1.8449944e-02
  6.1279614e-02
 -8.6028956e-02
  5.9862003e-02
  4.0373508e-02
 -8.4128238e-02
  5.9651979e-03
  5.1478751e-02
  1.2334426e-01
  8.3982997e-02
  1.2186307e-02
 -3.1720795e-02
  6.9035381e-02
  7.7704433e-03
  7.2240293e-01
 -4.4262208e-02
 -8.4118871e-03
 -1.2098776e-02
 -6.4860627e-02
 -5.8076210e-02
 -8.0305971e-03
 -3.8412143e-02
 -1.1703067e-01
 -3.7415732e-02
 -1.2149885e-01
 -2.1359241e-02
  9.9935923e-03
 -1.8195618e-03
 -5.3488314e-03
  1.4286478e-02
 -4.0665604e-02
 -9.5639467e-02
 -3.2159691e-03
  8.7115988e-02
 -5.7851577e-01
  5.2580088e-02
 -5.1267672e-02
 -5.0195046e-02
 -2.7689347e-02
 -5.3185932e-02
  3.0234119e-02
  5.1261738e-02
 -5.7476345e-02
  3.6111291e-02
  3.9016826e-03
  3.5833679e-02
 -5.2809194e-03
  7.8053057e-02
  7.9132095e-03
 -8.3007470e-02
 -6.2617712e-02
  8.4308989e-02
  5.0043967e-02
 -1.1743681e+00
  1.3081006e+00
 -1.1006740e-01
 -6.0332857e-02
 -2.4885055e-01
 -1.2724034e-02
  3.4783530e-01
 -4.8516935e-01
 -9.4664752e-02
 -2.6117441e-01
 -2.4365325e-02
 -4.3362830e-02
  2.3309916e-01
 -1.0121229e-01
 -3.9265755e-01
  1.2401436e-02
 -3.4570074e-01
 -4.4002105e-03
  5.8608409e-02
 -1.4003323e-01
  4.5920813e-01
  4.4103777e-01
 -1.3586940e+00
 -1.2982973e-01
 -2.1306719e-03
 -1.7265458e-01
  1.3455729e-01
 -3.0778554e-01
  1.4101237e-01
 -4.0123349e-01
  3.2855466e-04
 -9.9521863e-01
 -4.3867663e-02
 -3.5788666e-02
  6.2686008e-01
  1.4497201e-01
 -4.0694904e-02
  1.1764107e-01
 -4.5333020e-02
  2.4038137e-01
 -3.4233332e-01
 -1.1240601e-01
 -1.4924222e-01
  1.1341900e-01
  2.5180381e-02
 -3.0654088e-01
  9.9262305e-02
  2.1140674e-01
 -1.6124123e+00
 -1.1446333e-02
  3.1298429e-03
 -4.9438970e-03
  2.4178123e-01
  5.2157447e-02
 -3.3296015e-02
  1.8572372e-01
  3.9793208e-01
  3.5918823e-01
  5.0927452e-03
  1.5063043e-01
  1.1948678e-01
 -1.0149177e-01
 -2.7421664e-02
  9.5848516e-03
 -8.2860462e-02
  3.5274897e-02
  6.2686279e-02
 -1.0040135e-01
 -2.3961236e-01
 -9.6819825e-02
  9.6933329e-03
  3.5965662e-02
 -4.3494788e-01
 -6.4800918e-02
  1.5627718e-02
  5.6625057e-02
 -9.2137024e-02
 -2.4861384e-03
 -6.0046881e-01
  9.6793793e-02
  3.5785068e-02
 -4.0757537e-02
  9.1884255e-02
  4.9472200e-03
  1.7980946e-02
 -6.2776074e-02
 -1.4690259e-02
 -7.8848146e-02
 -7.8766391e-02
  4.9946405e-02
  4.2680597e-01
 -1.3478143e-02
 -4.8971790e-01
 -4.2171583e-01
  2.0371072e-01
  1.2559431e+00
  2.9218612e-02
 -3.6163516e-03
  1.2272164e-01
  3.0258492e-02
 -1.3795847e-01
  2.8366432e-01
 -8.2445428e-02
 -6.5111935e-02
 -3.9488692e-03
  1.1966939e-01
  1.0608156e-03
 -6.7515954e-02
 -3.6071029e-02
 -4.4604663e-02
 -2.1587642e-02
  3.0661182e-02
  3.2548897e-02
 -1.9202858e-03
  5.8097336e-02
 -4.6717677e-02
 -4.2304102e-05
  1.5705219e-02
 -2.8832424e-02
  1.2346307e-02
 -5.2411222e-01
  4.6811692e-02
  1.8386261e-01
  2.9188436e-02
 -2.3959575e-02
 -5.1839832e-02
 -1.7686594e-02
  5.9156824e-02
  7.0998962e-03
  2.0197517e-01
  1.0777115e-02
 -3.0199420e-02
  1.4057631e-02
  1.5824743e-02
 -5.6764312e-02
 -8.3313167e-02
 -6.4938080e-01
 -2.5215421e-02
 -1.3026129e-02
 -1.6190317e-02
 -8.9308634e-02
  2.6280129e-02
 -3.3326324e-03
 -2.7664503e-01
 -1.5452664e-02
 -3.2247551e-02
 -1.6604897e-01
 -1.3657129e-01
 -1.4762246e-03
  1.6783549e-01
  6.7430861e-02
  2.2371519e-02
 -1.0111921e-04
 -1.3814729e-01
  6.6866659e-02
 -1.3565898e-01
 -6.3450865e-02
  2.0402584e-02
 -2.5323164e-02
 -3.2920551e-01
 -7.1162365e-02
 -3.9670777e-02
  8.9117162e-02
  1.8210564e-02
 -1.2058747e-01
 -9.4526270e-03
  1.1088848e-01
 -3.9390016e-02
  4.3117132e-02
  6.6733986e-02
 -1.8113354e-02
 -2.8716665e-02
 -5.8296639e-02
  2.8991396e-02
 -6.2503614e-02
  6.0543156e-01
  2.1656358e-01
  1.5072470e-02
 -1.8274250e-02
  8.3742646e-04
 -5.3521657e-01
  1.6381961e-01
 -3.6491853e-01
 -9.5040375e-01
  8.1155812e-03
  7.8547569e-03
  6.7768432e-02
 -8.0376947e-01
  6.7504056e-02
 -4.3249962e-01
 -6.0943529e-02
 -6.1357909e-01
  2.9415479e-01
 -8.2539311e-03
 -5.0704416e-02
 -7.2657783e-03
 -7.6913744e-02
  3.2602821e-02
  1.1223723e+00
  4.8487216e-02
  1.8215427e-01
 -1.0063647e-01
  1.2804274e-01
  5.8817170e-03
 -5.5699386e-02
 -8.4775008e-02
  1.2946786e-02
  2.9359570e-01
  9.1062374e-02
 -2.8877103e-01
  1.2143131e+00
 -2.3870997e-02
 -3.2569760e-01
 -7.4132971e-02
  3.3053297e-01
 -5.5631623e-02
 -8.4696159e-02
  1.0353616e-01
  7.4626394e-02
 -9.2257254e-02
  7.3423140e-02
 -8.4858686e-02
  1.0993983e-02
 -2.8401259e-02
  3.8737950e-01
 -2.5060531e-01
 -3.1071983e-02
  1.9034216e-02
 -8.4131554e-02
 -8.2556736e-03
 -1.2919559e-01
  1.1991083e-02
 -3.8162887e-02
 -4.1509140e-03
 -1.2018656e-02
  4.0489633e-02
  4.5266426e-01
 -8.0194853e-02
 -1.4548251e-02
  3.0659574e-01
  1.7119978e-02
  4.4747546e-01
 -6.0159636e-01
 -3.6722612e-01
  9.4660688e-03
 -2.8470713e-03
  1.7732879e-02
 -4.0061533e-02
 -1.1795709e-01
 -2.0191357e-02
  2.5352070e-01
 -1.8902501e-01
  3.3145785e-04
 -3.1703100e-02
  6.5437183e-02
 -9.4950646e-02
  5.3827101e-01
  7.9733729e-02
 -1.7183311e-02
 -3.8419458e-01
  4.2857960e-02
 -5.8214612e-02
 -1.2943940e-01
 -3.1260431e-02
 -7.0934027e-02
 -1.3347720e-01
 -5.2633565e-03
  4.7006972e-02
  5.5005681e-02
  3.5735991e-02
 -5.4534864e-01
 -1.1553477e+00
  5.7523847e-01
  4.7795182e-01
 -1.3476454e+00
 -6.2770478e-02
 -1.3314159e-01
 -1.2558321e+00
  1.8268931e+00
 -1.5654290e+00
  8.5927278e-02
 -6.8469502e-02
 -7.3750085e-01
 -8.4677137e-02
  1.1361057e-02
 -4.3591249e-01
 -1.1055067e-01
 -1.5002130e-02
 -1.7824640e-02
 -1.9218456e-02
 -1.5641749e+00
 -1.4405472e+00
  7.4508622e-02
 -5.7046432e-02
  5.9917481e-03
 -5.9038103e-01
 -1.0401445e-01
 -4.6573523e-02
  3.4261400e-01
  3.8730609e-03
  2.9284319e-01
 -2.8087914e-01
  8.0037966e-02
  5.4409482e-02
 -3.7796125e-01
  1.2949742e-03
  1.0928817e-02
  2.1190207e-01
  2.1691382e-02
  4.3147810e-02
  2.6420707e-01
 -2.0178095e-02
 -3.0823372e-02
 -1.3957393e-01
 -4.7836713e-02
 -7.4667114e-01
 -2.9767841e-02
 -2.3469889e-01
 -5.0717735e-01
 -4.8465893e-02
 -4.3438710e-02
 -3.3948088e-01
 -1.5362480e-01
  3.4073108e-01
 -4.1613281e-01
  2.1279535e-01
 -1.6816443e-02
  3.0581255e-02
  6.1075877e-02
  1.2166889e-02
  3.9534196e-01
 -1.8789220e-01
  8.9894354e-02
 -4.3747071e-02
  1.2150278e-01
  1.6839279e-01
  4.4146192e-01
 -7.6220930e-02
  2.3420174e-02
 -2.4538052e-01
 -4.1313076e-01
 -6.7409523e-02
 -5.4480541e-02
  2.7558939e-03
  2.8489879e-03
  3.7328977e-02
  2.5926534e-02
 -2.6249349e-01
 -2.8392151e-01
 -7.2165197e-01
 -1.7777618e-02
 -7.1641445e-02
 -1.0101385e-01
  6.5915999e-03
  1.7768987e-01
  1.2692010e-01
  1.9010676e-02
 -3.2598586e-03
 -1.6808100e-01
  2.7656564e-02
  1.2893845e-01
  3.2887843e-02
 -5.3264651e-02
 -6.3649458e-01
  2.1957603e+00
  1.8690249e+00
  1.2518774e-01
  1.5471243e+00
  1.4705464e+00
 -2.3036439e-02
 -4.6845689e-02
 -5.0161905e-03
 -5.8059126e-01
 -2.0057867e+00
  3.6958668e-02
  7.6150484e-02
 -4.7970560e-01
 -3.3889385e-03
 -8.5597175e-01
 -3.0534264e-02
 -6.4653182e-01
  4.9383484e-02
 -9.1728675e-01
 -5.1729918e-01
 -2.6568139e-01
  5.7235396e-01
  5.2768316e-02
  4.4858676e-01
  7.5391418e-01
  6.6547781e-01
 -1.7152690e+00
  7.9467911e-01
  4.2579770e-01
  1.7289358e-01
  7.5870860e-01
  8.7145209e-02
  1.4730635e-01
  1.3488778e-01
  1.0400858e+00
  2.8000626e-01
  6.5664813e-02
  1.3813582e-01
  2.3723914e-01
  1.7549074e-01
 -5.9873413e-02
  2.2577609e-01
  7.1232229e-02
  3.2454690e-01
 -8.1007564e-01
  2.0501921e-01
  3.9115898e-02
  8.5492009e-01
  1.6330897e+00
 -4.3190319e-02
  9.4869292e-01
  1.0929899e-01
 -3.5653961e-01
 -1.8894219e+00
  6.7538127e-02
  1.6801292e+00
 -3.9275599e-01
 -7.4897967e-03
  3.1326503e-01
 -2.5088775e-01
  9.5109537e-02
  2.4277560e-02
  4.7274145e-01
 -7.1629877e-03
  2.9880911e-01
  1.9806067e-02
 -4.5832630e-02
  1.3714039e-01
  1.1124631e-01
  9.5247530e-04
 -9.9302391e-03
  4.1107655e-02
  1.2589230e-03
  5.2821882e-02
  6.6200271e-02
 -9.9095322e-02
 -1.9733657e-01
  1.1221866e-01
 -6.2063783e-01
  2.1535521e-02
 -5.7768214e-02
  5.2862279e-02
  2.5424307e-02
 -2.6357768e-02
 -1.0445782e-02
 -3.3539746e-02
 -1.3578361e-01
  9.0744570e-03
  3.1319463e-01
  8.6285993e-02
  1.7896891e-02
 -5.9177142e-02
 -5.3539570e-02
 -3.4349191e-01
  1.0184126e-02
 -8.3090246e-02
  6.6786006e-02
 -7.0464589e-02
  4.1839756e-02
  1.1092492e-02
 -1.4757209e-02
  9.0941158e-04
 -2.5699107e-02
  8.1088934e-03
  6.9054343e-02
 -3.2740384e-02
  3.7024442e-02
 -1.9843899e-02
  4.2501960e-02
  1.4581404e+00
 -5.7731893e-02
 -2.0076158e-03
 -1.7053816e-02
 -2.5163859e-01
  8.2469277e-02
 -4.5038138e-02
 -3.7619721e-03
 -1.8317265e-02
  9.8453246e-02
  2.6617816e-03
 -1.0450290e-02
  1.3928281e-03
 -1.8208443e-01
  1.1560903e-01
  1.9560987e-02
  3.3860062e-03
  2.3179011e-02
 -4.0238365e-04
  4.9640220e-03
  1.0711469e-03
  4.3484956e-02
 -4.7043126e-02
 -2.6630171e-02
  4.5477193e-02
 -1.9969413e-02
  1.0325327e-01
  1.3674306e-03
 -2.1558841e-01
 -6.1872649e-01
 -1.0387251e-02
  9.0289727e-02
 -8.7663844e-02
  3.8154714e-02
  7.3607783e-03
 -1.7839156e-02
  1.0980575e-02
 -4.4868771e-02
  6.2062484e-01
 -2.9200928e-03
 -1.8103842e-02
 -3.4041461e-02
  3.6137107e-01
  3.1521402e-02
 -4.1405205e-03
 -6.7032003e-03
 -7.1442063e-04
  3.2700010e-02
  9.1196578e-03
 -8.9350082e-02
  3.0967927e-02
  7.3477790e-02
 -2.1984046e-02
  6.2078469e-02
 -4.8179682e-02
 -1.4060209e-02
  1.9673472e-02
 -3.3325505e-02
  2.0784296e-02
  7.2022341e-02
 -1.0083053e-01
 -1.1541452e-03
 -3.1358365e-02
 -1.2645642e-01
  4.6371881e-02
  3.0658940e-02
  1.6712364e-02
  8.9635223e-01
 -5.7527268e-01
 -5.2846289e-01
 -2.9474774e-01
  4.8988971e-01
 -1.5683016e-01
 -4.8802090e-01
  2.7249215e+00
  7.3755467e-01
  3.3029282e-01
  7.0200346e-02
  2.6444390e-03
 -1.5421715e-02
 -7.6212659e-02
  1.1839680e-01
 -5.5805720e-02
  4.4535068e-01
  2.0550955e-02
 -2.9504934e-01
  1.0774004e-01
 -7.4140735e-02
 -7.1888290e-02
 -3.2810409e-02
 -2.0611680e-03
 -3.3522308e-01
 -2.0019962e-02
 -3.7348390e-02
  3.5220724e-01
  1.3413665e-01
  1.1983587e-02
 -1.8467885e-01
 -3.8154027e-01
 -3.3144504e-02
 -2.6005504e-01
  5.2567542e-01
 -1.2038527e-02
  2.9391605e-02
  2.1480495e-02
  6.8289593e-02
 -5.4247624e-01
  4.4717066e-02
  7.2674498e-02
  3.1190481e-02
  4.3930203e-02
  3.6377847e-02
 -5.9339888e-02
  1.5635729e-02
 -4.4123884e-02
 -1.4831676e+00
 -1.1215497e-01
  4.3404188e-02
 -1.5955741e-02
 -9.1312952e-02
 -1.8690601e-01
  3.2008189e-01
 -5.6576710e-02
  8.9637555e-02
 -1.3409546e-01
  1.1460512e-01
  5.1610422e-01
 -6.2284774e-01
 -9.1469711e-01
  8.8960804e-02
 -1.1381447e-01
  3.9464708e-02
  3.2606803e-02
 -3.9977863e-01
 -1.0614596e-01
  8.0817662e-02
  8.3236538e-02
 -3.1910595e-02
 -1.0904785e-02
  1.7891662e-02
  1.1286189e-02
 -1.4464618e-01
 -1.0846225e-01
  2.3222241e+00
 -1.6021256e-01
 -1.0020920e-02
  5.6035682e-03
  7.3906262e-03
  2.8226130e-02
 -1.1248121e-02
  8.9722708e-02
 -5.3738602e-02
 -6.4572826e-02
 -1.2673797e-01
  4.1067369e-02
  1.3076638e-01
 -2.7578421e-02
 -3.6510879e-01
 -9.3765363e-02
  5.7315171e-01
  4.3973464e-01
 -5.3428762e-02
 -1.4740340e+00
 -1.2298010e-01
  1.8303362e-01
 -1.0591527e+00
  2.1201961e+00
  2.0825835e-01
  2.7462035e-02
  3.3141676e-01
 -2.3400137e-01
  2.7810363e-03
  1.2732641e-01
 -5.3810928e-04
  1.0576183e-01
 -1.7586887e-02
  3.6575094e-02
 -3.3174891e-02
  1.2496971e-01
  4.0697318e-02
  1.4152425e-02
  3.8021624e-02
 -2.3975756e-03
  6.3587097e-03
 -1.8560073e-01
  1.4674570e-01
  5.8987257e-03
 -3.2843601e-02
  1.0402255e-02
  1.1024846e-01
 -2.9479908e-02
  1.3785612e-02
  8.2495153e-02
  2.5057596e-01
  1.0272676e-01
 -3.1599894e-01
 -1.3203817e-02
  2.2394039e-01
  1.2117856e-01
  2.0664087e-01
  7.2590393e-01
 -7.2924592e-02
  1.0440696e-01
  1.0497375e-02
  8.5854076e-02
  6.0902692e-02
 -4.7616277e-02
  8.5519753e-02
  1.5888278e-01
  2.5278991e-01
  1.9469009e-01
  2.3373571e-01
  1.0863185e-01
  3.2055798e-01
 -4.5749266e-02
  4.0784005e-02
 -2.2735950e-02
 -1.4683031e-02
 -3.9730676e-02
  2.0701421e-02
 -2.5108492e-02
 -3.5694155e-03
  4.7420610e-02
  2.4809372e-02
  2.0598253e-02
 -8.5478174e-03
  1.6895557e-02
  1.9622751e-01
  7.9082243e-02
  1.3098577e+00
  9.1351062e-01
 -1.0728782e-02
  1.6248336e+00
  2.8793197e-03
  8.8656813e-02
  1.2531495e-02
  1.3698708e-01
 -1.1699449e-01
  3.9596077e-02
 -2.7304616e-02
 -2.2590686e-02
 -1.3151900e-02
  2.0323559e-03
 -5.5454630e-02
  9.8659866e-04
  2.6957220e-03
 -4.5484338e-02
  9.5903170e-01
 -7.3184326e-02
  4.1309911e-01
 -7.9583764e-02
 -3.7070712e-01
  5.2496111e-01
 -4.4893536e-01
  2.9996216e-01
  4.3414630e-02
  1.1669150e-02
 -2.0121880e-02
 -4.8608333e-02
 -1.2865317e-03
  2.4559301e-01
  9.6962573e-03
  2.5590103e-02
  4.2528633e-02
  6.2648500e-03
  2.2182353e-02
 -4.4380892e-02
  9.9726813e-03
 -2.4790956e-01
  2.5609830e-01
 -1.2263194e-01
 -6.4656913e-02
 -2.6580622e-02
 -3.0574149e-02
  2.9229525e-02
 -3.5390022e-01
 -2.2721076e-02
  8.5970134e-02
 -2.0351704e-02
  7.2400399e-02
 -3.4669045e-02
  3.2951452e-02
 -2.1822706e-02
 -4.8533366e-03
 -9.2543131e-01
 -2.6141977e-02
  2.2493243e-02
  1.9157346e-01
 -3.1132889e+00
 -7.4865006e-02
 -3.7267033e-02
  8.3484821e-02
 -4.2261694e-02
  2.9118620e-03
 -9.0582781e-02
 -1.6854214e-02
 -6.4110033e-02
  5.1600020e-02
 -7.3229529e-02
 -8.3682565e-03
  2.4154274e-02
 -7.2387829e-02
  2.0235664e-01
 -2.1957362e-02
 -8.1436865e-02
 -1.0706309e-02
 -7.7064604e-02
 -1.2614965e-01
 -4.8526004e-03
  3.4207985e-02
 -2.5282960e-04
  3.0351668e-03
  5.3061638e-02
  3.6908336e-02
  9.1542281e-02
  2.6799643e-02
 -2.8372806e-02
 -8.1323735e-02
 -5.2782968e-02
  1.0636668e-01
  6.3930172e-01
  1.9125396e-02
 -6.3720532e-02
  2.3682043e-02
 -1.1948279e-01
 -1.7671439e-01
 -1.1047083e-01
 -1.2698453e-02
  2.8351510e-02
 -6.4266779e-02
  2.1322591e-02
 -4.9886933e-01
 -4.3496169e-02
  4.5365625e-04
  2.2728296e-01
  6.2539699e-03
  8.0718599e-02
 -8.0904208e-02
 -2.0193055e-01
  1.0142787e+00
  5.3584456e-01
  5.8754236e-01
  4.7925228e-01
  1.2974983e+00
  1.2238953e+00
 -1.3495040e+00
  2.5960103e-01
  1.2100890e+00
 -7.3913854e-01
  8.7788023e-02
  6.7734265e-01
 -2.7271998e-01
  2.5642338e+00
  2.7774940e+00
  3.1406254e-01
  4.6142918e-01
  7.7274770e-01
  5.0763929e-01
 -1.1798090e-01
 -3.4294412e-01
 -4.2483553e-02
  5.1772314e-01
  1.2161077e+00
  1.4891165e+00
 -5.6669831e-01
  4.1855022e-02
  4.8532313e-01
  1.7013229e-01
 -1.3924012e-01
  4.5590794e-01
 -4.8877776e-02
 -1.2511818e+00
  4.9887007e-01
  2.0269372e+00
  2.0399618e+00
  3.0286644e+00
 -2.1952629e+00
 -8.2165331e-01
 -7.1005588e-03
  1.3824191e+00
  4.1374024e-02
 -8.6269490e-02
 -1.0385773e+00
  1.1373926e+00
  8.0457151e-01
 -7.6610476e-02
 -5.8439779e-01
 -1.3434273e-01
  2.2750657e+00
  5.8062315e-01
  9.4246393e-01
 -4.1557288e-01
  1.4558339e+00
 -5.7250738e-01
 -4.9531165e-01
 -4.3626487e-01
  6.2283015e-01
 -9.3200035e-02
  1.0623159e+00
  5.2701944e-01
  7.2642308e-01
  4.3630874e-01
  9.9733174e-01
  1.7568037e-01
 -1.6091776e+00
 -1.3040149e-01
  1.3129449e-01
  1.3296957e+00
  1.4475554e+00
  8.0168605e-01
  3.3736783e-01
  1.4734276e-02
  1.3210695e+00
 -1.5606544e+00
  3.9466235e-01
  3.7107113e-01
  1.3653369e+00
  4.1964147e-02
  1.7744577e-01
 -1.6241969e-01
  3.7439507e-01
 -7.8124866e-02
 -8.1644303e-01
 -2.3337597e-01
  5.0705355e-02
  3.2198120e-02
 -2.2091037e-01
 -5.2758861e-01
  1.4426212e+00
 -2.4282832e+00
 -2.2167081e-01
 -1.3465036e+00
 -1.8902018e+00
 -1.3120875e-01
 -1.4975411e-01
  1.0623384e+00
 -8.4893966e-01
  1.2838209e-01
 -1.0006999e+00
  1.0632732e+00
 -5.9196097e-01
  3.5335984e-02
 -7.0272470e-01
 -1.0890234e+00
 -2.5399244e-01
  1.2089638e+00
 -3.7521571e-02
  6.5726423e-01
 -6.3063473e-01
 -1.0036588e+00
 -6.8444347e-01
  2.3204600e-03
 -1.4615219e+00
  9.0459073e-01
 -9.2160732e-01
  1.0892354e+00
 -8.1868851e-01
 -1.3203274e-01
  9.9899903e-02
 -1.2329614e+00
 -4.5458909e-02
 -1.0164368e+00
  2.7495840e-01
  4.4608012e-02
 -3.8587201e-02
 -4.7067482e-02
  4.1190526e-01
 -6.0137641e-01
  8.1073296e-01
 -6.5498212e-03
 -1.1494716e+00
 -2.3912020e-02
 -4.4232628e-01
 -2.7572474e-01
  1.5729442e-01
  5.9417862e-01
 -8.4041721e-01
 -9.6521121e-01
  6.2388945e-01
  4.1242659e-01
  1.6636840e-01
 -3.1474758e-02
 -6.0924804e-01
 -1.1857079e+00
  4.4622204e-01
  4.6590712e-02
 -4.9018356e-01
 -2.0041933e+00
 -3.4210420e-01
 -1.2034397e-01
  3.0553320e-01
  3.7438622e-01
 -4.3656203e-01
 -8.8336605e-01
 -4.2672741e-01
 -4.5847148e-01
 -7.0065504e-01
 -6.6803604e-01
 -4.8936030e-01
 -1.2478678e-01
  1.7657593e-02
 -3.0145336e-02
 -9.7344309e-01
  9.7280785e-02
 -1.3080168e+00
 -3.8558644e-01
 -6.4096051e-01
 -7.4328691e-02
  1.6381949e-02
  1.9713543e-02
 -2.8186136e-01
  6.1116236e-01
 -3.8174835e-03
  2.1789086e-01
  5.3591259e-02
 -6.4548398e-03
  3.9897844e-02
 -5.4443419e-01
  1.4609961e-01
  1.4813870e-01
 -2.1430963e-01
  7.5367898e-02
 -8.4739059e-02
 -2.1649802e-02
 -5.7832372e-01
 -7.6340765e-02
  6.7872489e-03
 -1.9055193e-02
  6.6885632e-04
  1.0865285e-01
 -3.1531027e-03
 -4.9944732e-02
  3.6605570e-02
 -4.1323025e-02
 -5.0109338e-02
 -5.8564246e-02
  2.1257533e-02
 -6.6822381e-03
  1.5379841e-02
 -1.3514994e-02
  1.5183309e-02
  4.3232850e-04
  8.2297057e-02
  4.2653941e-02
 -8.4790424e-02
 -1.2216306e-02
 -2.3187362e-02
  1.2282776e-02
  4.6628360e-03
 -1.0639677e-01
 -2.6098376e-03
 -4.8443798e-02
 -1.6886894e-02
 -1.1783762e-01
 -1.6197580e-04
 -3.3104107e-02
 -4.2935740e-03
  7.1575232e-02
  5.2186148e-03
 -4.8085809e-02
 -5.1187305e-03
 -6.8345919e-02
  1.1216060e-03
  1.0253725e-01
  2.8229613e-02
  8.2015723e-02
  7.9704076e-03
  3.1044153e-02
  1.2898980e-01
  1.8106231e-02
  4.2345773e-02
  1.4295269e-02
 -3.0381817e-02
  4.0184036e-03
  7.7841595e-02
 -1.1572669e-01
 -7.9185776e-02
  6.2938511e-02
 -1.6364393e-01
  1.6824408e-01
 -2.9315598e-02
  1.3364158e-02
  1.2042931e+00
  5.6728970e-02
  3.1486224e-02
  7.0660287e-03
  3.9407518e-02
  4.7402520e-02
 -8.4509112e-02
  1.2439452e-03
 -1.0076825e-01
  5.3556263e-01
  8.5626291e-03
  2.8083818e-02
  3.8833752e-02
 -1.8418103e-01
 -1.6784796e-01
 -2.6097977e-01
 -8.4472382e-03
 -1.1447217e-01
 -1.0919008e-01
  1.9785408e+00
  1.0188761e-01
 -1.6629204e-01
  1.1583630e-02
  2.5164235e-02
 -1.6051725e-02
  7.1411216e-01
  2.1166570e+00
  9.9146479e-01
 -1.7726325e+00
  9.0723091e-01
 -4.2807043e-01
  8.0267556e-02
  2.3982571e-01
 -1.7713705e+00
 -3.1270631e-02
 -1.2664843e-03
 -1.8593700e+00
  2.7088393e-02
 -7.3823363e-02
 -1.1602328e-01
  4.4388928e-02
  3.4480639e-02
 -1.0029805e+00
  1.5248664e-02
 -5.0579913e-02
 -2.4095323e-02
  2.4350317e-01
 -4.2719107e-02
  7.2108372e-04
  1.0996371e-01
 -4.4617750e-02
 -6.9753039e-03
 -3.8711265e-01
 -3.8139417e-03
  2.1161340e-02
  4.8248458e-01
  4.5974058e-01
 -6.9978796e-02
  8.1587553e-02
 -4.9991131e-01
  1.6040607e-01
  8.8767916e-02
 -8.4331840e-02
 -8.6807869e-02
 -1.2107220e+00
 -1.5426083e-01
 -2.9040959e-01
 -4.8688540e-01
  3.5117030e-02
 -4.8297126e-02
  6.5689063e-01
 -1.6294640e-02
  5.8112323e-01
  1.9883773e-01
  1.8571950e-01
 -2.6980072e-01
  1.5452941e-01
  7.5787432e-02
 -4.6523083e-02
  2.5741355e-02
 -1.2129211e-01
  1.8507993e-01
 -8.7860726e-02
 -3.6299190e-01
 -4.5693645e-01
 -2.9595003e-01
  2.2661065e-01
 -3.9621699e-01
  1.1636977e-02
 -4.7865666e-02
  8.3077185e-02
  6.6172637e-02
 -8.0389110e-03
 -4.1106868e-01
  1.3549060e-01
  7.9640865e-01
 -1.1099637e-02
  3.0538170e+00
 -1.6618903e-03
 -7.3395506e-02
  1.6819118e-02
 -6.6379547e-02
 -1.1761168e-01
 -4.9690895e-02
  1.3129313e+00
 -6.0787674e-02
  8.6754605e-02
 -2.4779363e-01
 -6.1660504e-04
 -5.1268864e-01
  1.8950437e-01
 -3.5031650e-02
  6.4328991e-02
 -5.1706638e-02
  3.2699510e-02
  4.2520496e-01
  6.1667126e-02
 -1.0770254e-01
  3.2468434e-02
  3.2457139e-02
  3.0963701e-01
 -8.9214629e-01
  1.3935277e-01
 -9.9142650e-03
  6.3378859e-01
  3.2622807e-02
 -2.2021306e-03
 -2.3720822e-01
  2.9653523e-02
  6.6539429e-02
  6.7437603e-03
  1.2889114e-01
 -1.5394032e-01
  4.5248926e-02
  1.6780728e-02
 -3.6177196e-02
 -5.7737548e-02
 -1.7957921e+00
 -8.6715529e-03
 -2.6989818e-02
  5.4152485e-02
 -1.6781864e+00
 -3.9056808e-02
  1.3613112e-03
  2.9077579e-03
  2.5101542e-02
 -7.7926882e-02
  5.8528236e-03
  4.7436613e-03
 -4.7791924e-02
 -4.3602931e-04
  1.1045946e-02
  4.7331925e-02
 -1.5032455e+00
  2.0164263e-02
  1.1772382e-01
  7.2979577e-02
 -6.4981900e-02
  2.7374538e-02
 -8.2964875e-02
 -1.2998365e-01
 -1.1811385e-01
 -4.5823772e-02
 -7.0532143e-02
 -6.7447402e-02
  7.5573251e-03
 -4.1930825e-02
  2.8989861e-02
  4.7450200e-02
  3.3622175e-02
 -1.7764144e-01
  1.9466553e-02
  1.9536723e-01
  1.0228994e-02
  5.3364612e-02
  7.9738878e-02
  5.3709589e-02
  5.7806473e-02
  1.9736418e-01
  1.8233329e-04
  1.4668114e-03
 -7.2023675e-02
  9.2943318e-02
  1.0435158e-02
  2.2212174e-03
  4.3978225e-03
  8.7827213e-02
  6.0294744e-02
 -1.0386682e-01
 -3.6923472e-02
  2.3466073e-02
  5.4041892e-02
  5.2437577e-03
 -5.3040391e-01
 -5.0411906e-02
 -4.1040130e-02
  6.7832485e-02
  3.0774219e-02
 -5.3472225e-02
 -3.3150420e-01
 -3.5541080e-02
 -7.3937178e-02
  4.4310314e-04
 -3.4677003e-02
  2.3885397e-02
  4.0779591e-01
 -3.6915429e-02
 -5.0061160e-01
 -3.4113694e-02
 -1.0146969e-01
  1.3531107e-01
  1.0846906e-01
  1.1272278e-02
 -1.5752221e-02
 -4.1629709e-02
 -1.8358236e-02
 -1.8398210e-02
  3.1858698e-02
  2.6385840e-02
  2.7273333e-02
 -2.1390149e-02
  2.6589384e-02
  4.0931888e-02
  3.2375991e-02
 -2.2847483e-02
  5.4836337e-02
  4.6667833e-02
 -2.0770546e-02
  6.0280364e-02
  9.9502802e-02
  3.3194043e-02
  2.2939714e-02
 -3.0934149e-02
 -5.3553108e-02
  1.7901699e-01
 -3.4154337e-02
  2.6940512e-02
  9.5790488e-01
  3.7539158e-02
 -2.3730934e-01
  6.7329228e-02
  4.4765878e-02
 -2.8229674e-02
  1.2440551e-01
  1.2063953e-01
 -9.5529005e-02
  4.6568077e-02
 -9.2791207e-03
  1.4045990e-02
 -2.8381212e-02
 -2.3309665e-02
 -2.4284564e-02
  1.4129746e-02
  2.6007744e-02
  8.9488596e-02
 -1.0466838e-01
  1.3618362e-03
 -6.1112032e-03
 -1.0807187e-02
  5.5524865e-03
  1.2832038e-02
  1.1963446e-03
  2.2720173e-02
 -7.3459768e-03
 -7.1010645e-03
 -2.8984809e-05
 -1.5399156e-02
 -6.7427807e-02
 -2.2024347e-02
 -7.1620971e-02
 -3.7465014e-02
  2.8275487e-03
 -8.3419628e-02
  1.4726174e-01
  5.9374664e-02
 -1.6114799e-02
  1.9764395e-02
  1.9349590e-02
 -6.1531108e-02
 -2.7971229e-02
 -3.1083811e-02
 -1.3847646e-01
  1.0500667e-02
  1.6313253e-02
 -2.5901243e-03
 -1.2161276e-01
 -4.4947404e-02
 -1.5312050e-02
  8.0902942e-02
  2.4776917e-02
  4.3347436e-03
  6.9946880e-03
  2.7292158e-02
 -2.3026538e+00
 -2.6019328e-04
  6.6317838e-01
  4.3109439e-02
 -2.0204453e+00
 -5.8848071e-01
 -2.3315104e-02
 -2.0188966e-01
  3.4477584e-02
 -4.4319901e-01
 -6.1436586e-02
  2.9309526e-02
 -3.6238272e-02
  9.6099181e-03
 -5.9983417e-02
  8.9543805e-02
 -1.6814755e-02
  2.2560199e-01
  3.4006760e-02
 -8.8356331e-02
 -5.3855043e-02
 -3.9384156e-03
 -1.5208338e-02
 -4.2995483e-02
 -6.4344943e-02
  9.1316096e-02
 -4.3211907e-02
 -1.1259520e-01
 -1.8793738e-01
  8.5400164e-01
  6.7496143e-02
 -5.8106463e-02
  2.0164441e-02
 -2.1002977e-01
 -3.5626244e-02
 -8.3077677e-02
  6.2786280e-03
  9.4460003e-02
  3.9109837e-02
 -8.7209873e-02
 -3.4508433e-02
 -1.2237179e-02
  5.1343914e-02
 -1.7227260e-02
  1.4747813e-02
 -6.2745251e-02
 -4.8417239e-03
 -1.3356354e-02
  8.3997836e-03
 -1.9841616e-04
 -5.3005934e-01
 -2.5567630e-02
 -1.0898992e-01
  6.0199101e-02
  5.5505075e-02
 -1.3482473e-04
 -4.4524333e-01
  5.9076123e-02
  1.6130330e-01
 -1.0089374e-01
  7.3029846e-02
  2.5940491e-02
 -1.8800706e-02
 -2.5892017e-02
 -9.2954211e-02
  9.8333217e-02
 -2.7427769e-03
  1.4459003e-02
 -1.1865886e-02
 -3.9863411e-02
  4.9108561e-02
 -2.9836756e-03
  5.9676860e-02
  3.7060533e-02
  4.5246741e-01
 -1.2876756e-01
  7.5861044e-02
  1.0982970e-01
 -1.1919515e-01
 -5.5175833e-03
  3.8610548e-02
 -1.9656639e-03
  5.9115145e-02
 -1.0778506e-02
  1.3470373e-01
  8.2282815e-03
 -1.9449875e-03
  2.6205180e-02
 -4.5161373e-03
 -1.4872069e-02
  4.9486463e-03
 -1.3219525e-02
  6.7447931e-01
 -2.3617749e-03
  6.4104104e-01
  4.8317205e-02
 -1.3013516e-02
 -8.3714120e-02
  2.1063934e-01
 -5.7464171e-02
  3.4593824e-01
 -6.7720627e-03
 -6.1351772e-02
 -1.7860712e-01
  3.0225657e-02
 -4.6192430e-02
 -2.9712092e-02
  1.9907633e-02
 -9.6589781e-02
  6.7853361e-02
  2.6285259e-02
 -3.0252293e-02
  1.7165093e-01
 -1.9841148e-02
 -8.1497561e-03
  2.7188757e-02
  3.1376198e-02
  3.9521310e-02
 -5.5104371e-02
 -6.2905021e-02
  2.7674403e-02
 -1.0709888e-02
  4.4694904e-02
 -6.1497930e-03
  1.9840471e-02
  2.0898443e-03
  1.4720929e-02
  6.0917150e-02
 -1.8440951e-02
  3.2372825e-02
  5.4580856e-02
  1.0448289e-03
 -9.2799738e-03
  2.3508783e-02
 -9.1280513e-02
 -1.0969036e-01
 -1.6938928e-03
  3.1952389e-02
 -1.2314601e-02
  9.1089301e-02
 -3.5687871e-02
  1.2209599e-01
 -1.5582258e-02
  8.5072353e-02
 -8.1121618e-01
 -6.4321496e-02
 -1.2331467e-01
 -5.7098430e-02
 -1.2349218e-01
  6.1062079e-02
  2.7439201e-02
 -4.9822059e-02
 -6.7776302e-03
  7.3882858e-03
 -8.6718984e-02
  9.0424135e-02
 -2.7955312e-03
  1.4995414e+00
  2.8043324e-02
  5.2751610e-03
 -5.9522491e-02
 -2.5807522e-02
 -4.1260883e-02
 -1.6034130e-02
 -6.3831830e-01
 -2.7360205e-02
 -3.9513111e-02
 -1.1703148e-02
 -1.1513003e-03
 -2.5692052e-01
 -1.7323399e-02
  3.2977257e-02
 -1.8661477e-02
 -1.8047350e-02
  1.0526261e-02
 -6.9193423e-02
  1.1678810e-01
  1.4011220e-02
  6.9038950e-02
 -1.1001574e-01
  2.4572368e-01
 -2.1866424e-02
  1.9156214e+00
  5.1268558e-03
 -4.0447798e-01
  5.7304054e-01
 -2.6312140e-01
  7.1850233e-02
 -2.0932276e-02
  7.5379789e-02
 -1.2667771e-01
  1.2820538e-02
  1.4236710e-02
 -1.2732198e-02
 -7.4788846e-02
  2.2402067e-02
 -3.5816591e-02
  6.0608029e-02
  8.3133824e-02
 -1.1959197e-01
  1.0645610e-01
  4.5037383e-01
  2.7211335e-02
 -1.0483459e-02
 -8.1543494e-03
 -4.6229085e-01
 -6.0385570e-05
 -5.5468758e-03
 -2.4549674e-02
  1.2553580e-01
 -6.4771563e-02
 -2.0238180e-02
 -3.4983806e-02
 -1.0669963e-01
  1.2479379e-02
  4.4579532e-02
  3.4524382e-03
  6.3694388e-02
  8.8997111e-02
  7.5941414e-02
 -5.2045807e-03
 -3.7590262e-02
  2.0471869e-02
 -1.1857613e-02
 -7.2389808e-03
 -8.3474005e-03
  3.5467908e-02
  6.6976890e-02
 -1.0529218e-02
  8.6753115e-02
  1.3621715e-01
 -6.9282264e-03
 -9.6772835e-02
 -7.2397888e-03
 -5.6274496e-02
  6.3040197e-02
  2.7088788e-01
 -2.2886997e-02
 -2.6275387e-01
  7.8429013e-02
  8.2399011e-02
  3.2465845e-02
 -8.2752429e-02
 -1.1345394e+00
  5.9442520e-02
 -1.9593105e-02
 -1.2882910e-02
  1.7306536e-01
  3.7781587e-01
 -5.1103558e-02
 -2.0476239e-02
 -9.7319363e-03
 -2.2693785e-01
 -9.3806749e-03
  6.3209134e-01
 -1.5098562e-02
 -3.3221759e-02
 -8.7594800e-02
  4.4265632e-02
 -5.0286029e-02
  1.1357693e-01
  1.7613305e-02
  1.3230788e-02
 -5.1148031e-02
  1.1055724e-02
 -2.3054704e-02
  9.4916699e-03
 -1.2972052e-01
 -1.6906646e-01
  2.6312381e-02
 -1.1321003e-02
  4.0188119e-02
  5.1792067e-01
 -1.3134158e+00
 -1.9375304e+00
  2.0795178e+00
 -1.0736420e+00
 -1.0048451e+00
  1.5957221e+00
 -7.3688865e-01
 -6.3584101e-01
  8.1973761e-01
 -1.0230924e+00
  3.9104497e-01
 -9.0971750e-01
  2.2100171e-01
  6.3428074e-01
 -8.1384920e-02
  4.9640238e-02
  1.6499372e-01
 -1.2290020e+00
 -1.9161148e-01
 -3.0149590e-02
 -6.0463524e-01
  1.7200940e+00
  1.0578881e-01
 -5.6979060e-02
 -4.2742908e-01
 -3.3651122e-01
  3.0375281e-01
  2.9197231e-01
  2.5611094e-01
  9.2537475e-01
 -6.3048142e-01
 -1.0452585e-01
 -8.8537477e-02
  3.3087712e-02
 -9.1050245e-02
 -4.3515384e-01
 -3.4509045e-01
  6.1836195e-01
 -2.1055439e-01
 -3.8599285e-01
  7.2063249e-01
  2.2247771e-02
  4.8594120e-01
  4.3765202e-02
  1.1319452e-01
  1.1357721e-02
 -3.7981119e-02
 -1.4331403e+00
  1.4741025e-02
 -3.8991955e-01
 -8.7949242e-03
 -4.9546880e-01
 -5.1019983e-03
 -2.7318174e-02
 -2.2776340e-01
 -1.2747552e-01
 -1.1058893e+00
  3.8524872e-01
 -1.5167015e+00
  2.7483076e-01
 -1.9054407e-01
  5.6539726e-01
 -1.0508019e+00
  4.4315776e-01
 -2.2249813e-01
 -2.1795973e-01
 -5.4097462e-02
  7.3222823e-02
  1.9692098e-01
 -8.7005055e-01
  1.7207192e-01
 -5.0777283e-02
 -4.7772571e-02
 -7.5375661e-02
 -5.6499487e-01
 -7.6233137e-01
 -5.1964521e-01
  2.6100914e-03
 -1.6514521e+00
  4.6017583e-02
  3.0233975e-02
 -3.1437621e-02
 -4.3197023e-03
 -4.6400431e-01
 -3.5648713e-01
  3.1087376e-02
  1.3474717e-02
 -2.2009576e-02
 -1.1177272e-02
  2.7496144e-01
  9.0535796e-01
  9.5869079e-03
  1.8156233e+00
 -1.9888054e+00
  1.4570067e+00
  9.2891651e-01
  7.9596537e-01
 -1.3012922e+00
 -5.1926501e-02
 -1.3248532e-01
  1.5206710e-01
 -4.8123443e-01
  3.7367605e-02
  1.4298115e-02
  7.0426919e-02
  1.2737817e+00
  1.1035650e-02
  2.1666193e+00
 -8.9232676e-02
 -9.0829119e-02
 -4.6321079e-01
 -3.7166321e-01
  8.2931921e-02
 -3.2938266e-01
  5.7496852e-01
  2.9704826e-02
  3.6927927e-02
  2.1257706e-03
 -8.5548358e-03
  1.1194977e-01
  1.0081667e-01
  9.6781261e-02
 -2.8428516e-01
  2.2472903e-02
  1.6540538e-01
  9.9118277e-02
 -1.4355012e-02
  2.0472571e-01
  1.1162771e+00
 -1.7856403e-01
  2.0445763e-01
  2.6221502e-01
  8.3874840e-01
  1.2410291e-01
 -7.0047431e-02
  1.3085444e-02
 -2.9317560e-02
 -9.7141139e-02
  6.6902846e-02
  1.5436091e+00
  1.6451325e-01
  1.3078693e+00
 -5.6315631e-01
 -2.4688661e-01
 -1.7633029e-03
 -1.6191050e-01
 -1.4129581e-01
 -8.4595579e-01
 -1.1591440e+00
 -1.1314985e+00
  4.7619045e-01
 -1.2561809e-01
 -1.3377151e-01
 -4.3909852e-03
  4.3468293e-02
  1.0128091e-02
 -4.6206973e-02
 -1.5127516e-02
  3.3708087e-01
  5.0207376e-02
 -6.3484710e-01
  1.6459707e-03
 -4.9135413e-02
 -3.2060254e-02
 -3.2323691e-01
  1.1656592e-01
  1.0918736e-01
 -6.5329066e-03
 -5.6075913e-01
 -5.9462279e-02
  6.7603746e-03
  2.6375303e-01
  5.3709554e-03
 -6.2218681e-02
  3.0798223e-02
 -3.9762858e-02
 -1.0326043e-01
  5.3079274e-02
 -3.6495961e-02
  3.0557745e+00
 -5.2973962e-01
  1.1021057e-03
  2.1516623e+00
  2.3903666e-01
  5.3779256e-01
 -1.3158710e-02
 -2.1276085e-01
 -2.0131435e-01
  5.7764941e-01
  2.0344514e-02
  4.1297260e-01
  5.1629275e-02
 -7.6420307e-03
 -5.1818416e-02
 -2.4014184e-02
  2.0544410e-03
 -1.4749492e-03
 -5.7543050e-02
 -3.5273150e-02
  5.6859039e-02
  4.5323811e-02
  1.0295034e-01
  6.4639553e-02
 -2.9635677e-02
 -1.4513842e-02
 -2.5510602e-03
  1.1511002e-01
 -1.6829597e-02
 -7.0722215e-02
  7.1525658e-03
 -1.1409704e-01
  1.1381268e-02
 -1.8427094e-02
 -3.5324588e-02
 -2.0038577e-02
  3.5702270e-02
  9.0733111e-02
  1.6368753e-01
 -5.9964150e-02
 -2.1268986e-02
  1.7951624e-02
 -1.0580420e-02
 -2.6777783e-02
 -8.5776643e-04
  6.6444002e-02
 -1.2668748e-02
  2.8009546e-01
 -3.4970486e+00
  5.2478902e-02
 -7.2609363e-03
  7.5611463e-03
 -2.3525372e-02
  4.6444912e-02
 -3.4002084e-02
 -1.8469109e-01
 -3.3220083e-01
  1.3706826e-01
  9.0132169e-02
  2.7609799e+00
 -5.3372964e-02
 -3.8937494e-01
  2.0781495e-02
  4.8449334e-02
 -2.3680463e-02
  1.4085777e-01
 -2.2533646e-02
  7.9311311e-02
  8.7715955e-03
 -1.6787808e-01
  6.9803946e-02
  3.3399966e-02
 -9.9322356e-02
 -6.3683981e-01
 -2.7003257e-02
  3.9059643e-02
 -5.0964721e-02
  3.8395375e-03
 -7.3819369e-02
  2.8376056e-02
  1.6038349e-02
 -6.3174450e-01
 -1.7378526e-02
  3.9041225e-02
  3.7149277e-02
  3.6029741e-02
  4.8589036e-02
 -1.1925871e-02
 -1.1412438e+00
 -5.3340793e-03
 -2.0884855e+00
  5.5015992e-02
 -1.1226845e+00
 -1.1881778e+00
 -2.7150655e-01
 -5.0002736e-01
  7.6943398e-02
 -4.4165096e-01
  2.5423696e-02
 -1.5290640e-01
  2.0023502e-02
 -2.2264533e-02
 -1.6018809e-01
  6.6520050e-02
  7.4108336e-03
  1.6381432e-01
 -1.4106551e-02
  1.0327022e-02
 -3.5532467e-02
  3.9456449e-02
 -7.9767801e-02
 -5.1787548e-02
 -5.7925447e-04
  6.8065494e-01
 -8.7357216e-02
  2.5562512e-02
 -1.1139620e-02
 -3.5426530e-01
  4.6634395e-02
 -1.0128808e-01
  4.1766459e-01
 -1.2624119e-01
 -1.2497672e-01
 -2.5960280e-02
 -2.7657384e-02
 -9.8399848e-02
 -2.2576652e-01
  5.6803655e-03
  8.8923965e-03
 -2.2262847e-02
 -1.0001008e-02
 -3.7549362e-02
 -1.9546565e-01
 -1.8855531e-02
 -1.9684181e-02
 -9.5297404e-02
  4.9506605e-02
 -5.1847130e-01
 -8.1446260e-02
  4.6382039e-03
  1.3337499e-01
  7.6205190e-03
  2.1715800e-03
  2.0877458e-03
 -4.3002942e-01
  5.7718430e-02
 -2.0712201e-01
  1.7037399e-02
 -5.4614738e-02
  2.6868472e+00
 -2.4653209e-02
  2.2290075e-01
 -4.9300971e-03
  2.9242823e-01
  2.4499320e-03
 -6.7841955e-03
  8.9315465e-03
  1.4212724e-02
 -4.4556513e-02
  1.0090334e-01
 -2.4602029e-03
 -1.6961217e-02
 -9.9152494e-03
  1.1843303e-02
 -5.0640907e-02
 -7.7450410e-03
  7.9374626e-02
  4.0054884e-02
 -6.6972589e-03
  1.5197056e-02
  4.9717419e-02
 -3.3085745e-02
 -1.2045366e-01
  6.2887333e-02
 -1.6276038e-03
 -3.2350820e-02
  1.4154424e-01
 -7.4257478e-02
  1.4704958e-01
  1.2884011e-02
 -2.4889883e-01
  3.9875829e-01
  1.0466849e+00
 -6.3658679e-01
  3.8278586e-01
 -2.8368372e-01
 -4.6885014e-01
  4.7556889e-01
 -1.3397254e+00
 -8.9598354e-03
  3.5473112e-02
  1.3881929e-01
  7.5616688e-01
 -1.5735528e-02
 -5.0220419e-02
  3.2376889e-02
 -1.8046364e-01
 -2.8987681e-02
 -1.8807107e-01
  1.4525898e-02
  2.0583475e-02
 -1.0922128e-01
  4.8505710e-03
 -1.3413976e-02
 -2.0868509e-01
 -4.3100242e-02
  3.5991173e-02
 -4.0691484e-02
 -2.7734619e-02
  1.4030014e-01
  3.3990541e-01
 -3.1317690e-01
 -6.8674766e-02
  1.9172895e-03
  8.4942028e-02
  1.1093219e-01
  6.1857332e-02
 -7.1901828e-02
 -1.0868596e-01
 -6.1854708e-01
  6.2097415e-02
 -2.9562386e-03
 -1.7784360e-01
  3.9291680e-02
 -7.4109562e-02
  4.7355454e-02
 -1.6797632e-01
 -3.1809505e-02
  3.6637542e-01
  4.9546719e-02
 -1.1203786e+00
  2.5050202e-01
  6.6626137e-01
  4.1317213e-02
  1.4159597e-01
  1.5999984e-02
  8.4545249e-01
 -1.4232358e+00
 -4.2298049e-01
 -1.5705396e-01
 -4.6939212e-01
  2.9057050e-01
 -1.1749864e-02
 -6.9134235e-02
 -1.3885692e-01
  8.9787357e-02
  2.2234243e-01
 -3.9650926e-01
  3.4080092e-02
 -8.4956512e-02
  2.7948434e-02
 -7.0655078e-02
 -1.1976462e-02
 -4.6783097e-02
  3.2066636e-02
  2.4979866e-01
 -9.6863424e-03
  7.9190932e-02
 -2.2054197e-01
  8.8005230e-02
 -2.5866965e-02
  3.4523711e-02
 -7.4111864e-02
 -7.2861731e-02
  2.0738384e-02
  1.3876265e-01
  2.3599708e-02
  3.0634563e-02
  5.3631499e-02
  1.2184911e-02
  1.8033110e-01
 -6.6966397e-01
 -7.7353942e-01
  4.7359371e-01
  4.6904996e-01
 -1.0945991e+00
 -2.4625576e-01
 -2.5028342e-01
  2.8835830e-01
 -6.2765783e-01
 -1.4659712e+00
  1.8501040e-02
 -6.1381549e-01
 -5.8669573e-01
  1.6352270e+00
 -4.3040138e-01
  1.3014051e-01
 -2.3831157e-01
 -1.1203494e+00
 -7.6044969e-02
 -1.5545073e+00
 -6.3072658e-01
 -3.1714725e-01
 -1.2431517e-01
 -3.0689207e-01
 -2.5386037e-03
 -1.0945907e+00
 -1.5073870e-02
 -4.5216154e-02
 -6.8866946e-02
 -7.9710811e-01
  2.1928968e-01
  1.1074246e+00
 -2.5245395e-01
 -1.2572026e+00
 -1.8365427e+00
  3.9310926e-01
 -1.7752360e-01
  1.0175627e+00
 -8.9179039e-01
 -8.0774212e-01
  1.3765529e-01
 -8.0633891e-01
 -9.6597835e-02
 -1.7207366e-01
 -2.6628718e-01
 -1.7158902e+00
 -2.2046839e-01
  2.8203818e-01
 -7.2365981e-01
 -5.5456460e-01
 -5.6545094e-02
 -2.5781298e-01
 -8.4449190e-01
 -2.6590130e-01
 -1.2102937e+00
 -5.7466173e-01
  3.0383962e-01
 -4.4836986e-01
  6.1281013e-01
  4.7593263e-01
 -3.7039882e-01
 -6.6159196e-02
  5.0717145e-01
 -5.4617488e-01
 -4.7165024e-01
  1.5506457e-01
 -7.2958308e-01
  5.6518561e-01
  2.2699110e-02
 -2.7313912e-01
 -5.1939362e-01
 -7.9796966e-03
 -2.5166821e-01
 -3.5761010e-02
  5.0911289e-01
 -3.9917029e-02
 -4.3405827e-02
 -2.0972496e-01
 -4.7773474e-01
 -2.3517159e-01
  3.8190866e-01
  1.6171873e-01
 -1.6249718e-01
  2.8353608e-01
 -5.7655189e-02
  9.3413651e-02
 -7.1857616e-02
 -5.9532422e-01
  1.4596839e-02
 -1.1722622e+00
 -2.3142269e-02
  1.0615852e-01
  5.8065820e-02
  2.6829537e-02
  3.4744736e-02
 -3.4465861e-01
 -5.5540077e-02
  2.5051271e-03
 -1.0378518e-01
  5.6338757e-01
 -2.1045599e+00
 -4.7047261e-02
  4.4049674e-01
  4.9362984e-02
  2.3723017e-01
 -8.6569652e-02
  4.9677983e-02
  7.4545696e-02
 -9.6744066e-01
 -5.0176061e-03
 -1.5505862e-03
  6.2669659e-01
 -8.1628636e-03
 -8.2774393e-02
 -1.5998201e-01
  1.6452107e-01
 -6.3928381e-02
  5.1150836e-02
  1.4324971e-01
  2.1224137e-02
 -1.9196979e-03
 -1.0451991e-01
  1.9773089e+00
 -8.8313548e-03
  1.4259699e-02
 -5.7094563e-02
 -8.1479298e-03
  1.6939048e-02
  9.5600486e-02
 -2.8804303e-03
 -1.4023233e-02
 -2.6600849e-02
 -1.4463297e-02
 -2.4505302e-02
  4.2183800e-03
 -3.1643678e-02
  4.7278758e-02
  5.4528904e-03
 -2.0469191e-02
 -1.4150605e-02
  8.6177941e-03
 -1.1831762e-01
  3.7893564e-02
  1.0270042e-02
 -5.1046100e-02
 -2.2602783e-01
  3.6530221e-01
  1.1136258e-02
  8.0794759e-02
  1.1424854e-01
  1.9013055e-01
 -1.8064076e-02
  1.0490922e-01
  2.9563431e-02
  3.7709969e-01
 -4.1779247e-03
  5.4283395e-02
  1.4170462e-03
  1.0004059e-01
  9.0396754e-02
  9.7046435e-02
  5.9752334e-02
 -3.9184466e-02
 -6.6358102e-03
 -5.3929962e-02
  1.2387749e-03
  5.6085240e-02
  4.7101907e-02
  2.8544355e-02
  5.4077215e-02
 -1.8353885e-02
 -8.1825070e-02
  1.8013159e-02
 -2.0419918e-02
  2.0635160e-02
 -5.8558814e-02
  3.1192869e-02
  8.2593240e-02
  3.9253872e-02
 -1.1452777e+00
 -2.1760054e-01
 -4.3614811e-01
 -1.9627596e-01
  4.9184620e-02
 -6.9640853e-02
 -6.7357868e-02
  1.1027305e+00
  1.5165845e+00
  1.9977668e-01
 -1.4825455e-02
 -8.1293263e-02
  1.3273145e-01
 -3.9524384e-02
  2.4845043e-02
  1.3365227e-01
 -2.6362872e-02
  1.5329461e-02
 -1.3776039e-01
  1.0266493e-01
 -4.0937625e-02
  1.1132403e-01
  7.1702846e-03
 -3.1869937e-02
  6.7924440e-02
 -3.3799680e-03
  5.3450003e-02
 -2.1212023e-01
 -1.5819233e-02
  1.7349799e-01
 -1.3254403e-01
  4.5751762e-02
 -1.6932663e-02
  1.5466206e-02
 -3.0527033e-02
  9.4829850e-02
 -1.5662614e-01
 -3.7872590e-02
 -6.3804747e-03
 -2.2179255e-02
 -1.6841356e-01
  8.8838890e-02
 -1.8849846e-02
 -5.3439431e-02
 -1.9431515e-01
  1.1430734e-01
 -6.9143230e-01
 -1.2160686e-02
  1.2996787e+00
 -1.1830891e-02
 -8.6719468e-02
  4.4350825e-02
  1.5984322e-01
  3.5861969e-01
  2.4715824e-01
 -7.3635451e-02
  7.4672997e-01
  1.0914475e+00
 -1.2215140e+00
 -1.4458066e-01
 -4.6118355e-01
  5.5149224e-02
 -3.3523336e-03
  7.1670972e-02
 -4.6607304e-02
  2.8025132e-02
 -2.3274651e-01
  1.2379398e-02
  1.9023983e-02
  1.8705718e-02
  1.1198660e-02
 -6.2343284e-02
 -2.0493457e-02
  1.0187358e-01
  8.7474070e-02
  6.9719177e-01
 -2.0358354e-02
  4.0277034e-01
  5.8110245e-02
  4.3770685e-03
 -4.5243767e-03
 -1.7146725e-02
 -4.7043001e-04
  6.4669609e-02
 -3.0469021e-03
  4.7145687e-02
  6.6365317e-02
  6.7212266e-01
  5.8809943e-03
 -4.3432977e-02
  1.4467511e+00
 -1.3711685e-01
  4.1205296e-03
  4.7183197e-02
 -9.3201950e-02
  1.5063161e-01
 -1.5749546e-02
  1.1225811e-01
  1.9841926e-01
  1.7531881e-01
  1.3277848e-01
  4.5036880e-04
 -2.7331075e-01
 -1.6281126e-01
  1.7131697e-01
  4.1712038e-02
  2.7394919e-02
  1.3933113e-02
  1.2956312e+00
  1.7319622e-02
  5.8981720e-02
  1.6183266e-01
 -1.3145363e-01
 -4.3899900e-01
  1.9866539e-02
 -1.2576587e-02
  2.2629188e-02
  2.6527125e-01
  2.6424637e-02
 -4.1881386e-02
  8.0647469e-02
 -7.2886162e-03
  1.0599034e-02
 -9.6662626e-02
 -4.2286769e-02
 -2.0428326e+00
 -8.9125478e-01
 -7.0153072e-02
  4.7988355e-02
  9.4005987e-02
  8.1194662e-02
  1.3219283e-02
  4.7482746e-03
  9.3019187e-02
 -2.0918921e-02
 -8.5896693e-02
 -1.6539847e-02
  1.4210287e-02
 -2.4688858e-01
  1.0304636e-01
  2.8380796e-03
  4.6316680e-02
  2.4508707e-02
 -1.9005451e-02
 -8.8522315e-02
 -1.7913942e-01
 -1.2411197e-02
  1.8590890e-01
  1.8298108e-02
 -2.6145186e-02
 -6.8695925e-02
  4.7316678e-02
  5.0068568e-02
  1.1815707e-02
  1.1858400e-01
 -5.0121561e-02
 -4.1625828e-02
 -5.0142914e-02
 -5.0818678e-02
  2.1385469e-02
 -1.7361698e+00
 -7.4391589e-03
 -2.5086737e-01
  1.6807817e-02
  1.8615605e-02
  5.0506052e-02
  1.1087930e-02
 -2.8573796e-02
 -4.2996097e-02
  7.0016623e-02
  1.4741880e-01
 -9.4192095e-02
  2.1895198e-02
 -6.4640239e-02
 -1.3674560e-01
 -5.2645383e-03
 -3.3291802e-02
  5.9638511e-02
 -1.7840710e-02
 -1.6231814e-02
  3.1246403e-01
  1.0508436e-01
 -3.3400485e-01
 -4.2745356e-02
  3.6386597e-01
  3.9406240e-01
  2.7026957e-01
  5.4821360e-01
  5.4732125e-02
  1.5553706e-02
  3.8502989e-03
  1.1931112e-02
  3.1827900e-03
 -9.5120959e-02
  3.7991539e-02
 -7.4330553e-02
  6.0630925e-02
  1.0426552e-01
  2.2760889e-02
  5.5616055e-02
  9.4381347e-02
 -9.7903423e-03
 -5.0433022e-03
 -2.0247297e-02
  1.7415558e-01
  3.9636914e-02
  5.7654172e-02
 -8.1310712e-02
 -7.6582305e-02
 -2.4831988e-02
 -1.6409650e-02
  2.6850093e-02
  2.6309974e-03
 -5.2374981e-02
  7.2069764e-03
 -1.5652787e-02
  4.1630380e-03
 -8.0614752e-04
 -1.6015050e-01
  1.4575917e-02
 -3.3430479e-02
 -4.1159622e-02
 -7.0575200e-02
 -1.0599481e-01
 -8.0193661e-02
 -5.4941452e-01
  4.4088494e-03
 -1.1077739e-02
 -1.0619858e-02
  5.2968144e-02
  1.2704085e-02
  5.4800164e-02
 -4.7986630e-02
 -4.6394415e-02
  1.7987126e-02
 -4.0432859e-02
  2.4059199e-02
 -1.1867332e-02
  2.2525806e+00
 -4.2506363e-02
 -1.0788624e+00
  2.6142949e-02
  1.6384611e-01
  1.2770930e-01
  6.2920511e-02
 -1.4798203e-01
 -1.4517505e-02
 -1.4898431e-01
 -8.4094144e-03
  5.1679827e-02
  3.0488521e-02
 -7.5346880e-02
  2.1051273e-02
  3.3728320e-02
 -8.4496714e-02
  3.6810108e-02
 -6.8184100e-02
  4.7457892e-02
  1.4595340e-01
 -3.1826839e-02
  6.1186408e-03
 -1.3251205e-01
 -8.9302078e-02
 -1.8932119e-02
  4.3726526e-03
 -1.9496707e-02
 -1.3712151e-01
 -9.4451219e-02
 -4.7740668e-02
  8.9236163e-03
 -6.8593955e-01
  1.0842465e+00
 -2.3217663e-01
  9.0328312e-01
  8.2718772e-01
 -1.2925495e-01
  1.4073805e+00
 -2.0518720e+00
  2.0283120e+00
 -1.5015294e-01
 -1.5221197e-02
  1.0109592e-01
  8.7506115e-02
 -1.9430199e+00
  4.3927874e-02
  2.5865247e-03
  1.4826463e-02
  2.2758638e-02
 -1.1922395e-01
 -5.0738927e-02
  8.6966734e-03
  1.8589642e-02
 -1.4857991e-01
  2.1957260e-01
 -1.2029131e-02
 -3.7126330e-01
  5.7313636e-02
 -4.6564490e-01
 -1.0455602e+00
  1.2887026e-01
  6.6087860e-01
 -3.5831133e-01
  4.1394669e-01
